SNNS network definition file V1.4-3D
generated at Thu Sep 11 17:54:12 2014

network name : RSNNS_untitled
source files :
no. of units : 221
no. of connections : 4020
no. of unit types : 0
no. of site types : 0


learning function : BackpropMomentum
update function   : Topological_Order


unit default section :

act      | bias     | st | subnet | layer | act func     | out func
---------|----------|----|--------|-------|--------------|-------------
 0.00000 |  0.00000 | i  |      0 |     1 | Act_Logistic | Out_Identity 
---------|----------|----|--------|-------|--------------|-------------


unit definition section :

no. | typeName | unitName    | act      | bias     | st | position    | act func     | out func | sites
----|----------|-------------|----------|----------|----|-------------|--------------|----------|-------
  1 |          | Input_1     |  0.00000 |  0.12059 | i  |   1,  0,  0 | Act_Identity |          | 
  2 |          | Input_2     |  0.00000 |  0.18581 | i  |   2,  0,  0 | Act_Identity |          | 
  3 |          | Input_3     |  0.00000 | -0.24672 | i  |   3,  0,  0 | Act_Identity |          | 
  4 |          | Input_4     |  0.00000 | -0.22711 | i  |   4,  0,  0 | Act_Identity |          | 
  5 |          | Input_5     |  0.00000 | -0.09102 | i  |   5,  0,  0 | Act_Identity |          | 
  6 |          | Input_6     |  0.00000 | -0.04682 | i  |   6,  0,  0 | Act_Identity |          | 
  7 |          | Input_7     |  0.00000 |  0.11988 | i  |   7,  0,  0 | Act_Identity |          | 
  8 |          | Input_8     |  0.00000 | -0.26017 | i  |   8,  0,  0 | Act_Identity |          | 
  9 |          | Input_9     |  0.00000 |  0.05249 | i  |   9,  0,  0 | Act_Identity |          | 
 10 |          | Input_10    |  0.00000 |  0.08578 | i  |  10,  0,  0 | Act_Identity |          | 
 11 |          | Input_11    |  0.00000 |  0.29436 | i  |  11,  0,  0 | Act_Identity |          | 
 12 |          | Input_12    |  0.00000 | -0.12257 | i  |  12,  0,  0 | Act_Identity |          | 
 13 |          | Input_13    |  0.00000 | -0.13720 | i  |  13,  0,  0 | Act_Identity |          | 
 14 |          | Input_14    |  0.00000 | -0.25821 | i  |  14,  0,  0 | Act_Identity |          | 
 15 |          | Input_15    |  1.00000 |  0.26978 | i  |  15,  0,  0 | Act_Identity |          | 
 16 |          | Input_16    |  0.00000 | -0.07069 | i  |  16,  0,  0 | Act_Identity |          | 
 17 |          | Input_17    |  0.00000 | -0.10637 | i  |  17,  0,  0 | Act_Identity |          | 
 18 |          | Input_18    |  0.00000 |  0.29302 | i  |  18,  0,  0 | Act_Identity |          | 
 19 |          | Input_19    |  0.00000 |  0.20551 | i  |  19,  0,  0 | Act_Identity |          | 
 20 |          | Input_20    |  0.00000 | -0.13481 | i  |  20,  0,  0 | Act_Identity |          | 
 21 |          | Input_21    |  0.00000 |  0.05798 | i  |  21,  0,  0 | Act_Identity |          | 
 22 |          | Input_22    |  0.00000 |  0.03385 | i  |  22,  0,  0 | Act_Identity |          | 
 23 |          | Input_23    |  0.00000 |  0.20874 | i  |  23,  0,  0 | Act_Identity |          | 
 24 |          | Input_24    |  1.00000 | -0.18923 | i  |  24,  0,  0 | Act_Identity |          | 
 25 |          | Input_25    |  0.00000 | -0.06152 | i  |  25,  0,  0 | Act_Identity |          | 
 26 |          | Input_26    |  0.00000 |  0.23386 | i  |  26,  0,  0 | Act_Identity |          | 
 27 |          | Input_27    |  0.00000 |  0.21029 | i  |  27,  0,  0 | Act_Identity |          | 
 28 |          | Input_28    |  0.00000 | -0.10936 | i  |  28,  0,  0 | Act_Identity |          | 
 29 |          | Input_29    |  0.00000 | -0.23822 | i  |  29,  0,  0 | Act_Identity |          | 
 30 |          | Input_30    |  0.00000 | -0.27306 | i  |  30,  0,  0 | Act_Identity |          | 
 31 |          | Input_31    |  0.00000 |  0.08699 | i  |  31,  0,  0 | Act_Identity |          | 
 32 |          | Input_32    |  0.00000 |  0.18237 | i  |  32,  0,  0 | Act_Identity |          | 
 33 |          | Input_33    |  0.00000 |  0.21275 | i  |  33,  0,  0 | Act_Identity |          | 
 34 |          | Input_34    |  0.00000 |  0.14027 | i  |  34,  0,  0 | Act_Identity |          | 
 35 |          | Input_35    |  0.00000 |  0.25525 | i  |  35,  0,  0 | Act_Identity |          | 
 36 |          | Input_36    |  0.00000 | -0.17827 | i  |  36,  0,  0 | Act_Identity |          | 
 37 |          | Input_37    |  0.00000 | -0.20655 | i  |  37,  0,  0 | Act_Identity |          | 
 38 |          | Input_38    |  0.00000 |  0.07514 | i  |  38,  0,  0 | Act_Identity |          | 
 39 |          | Input_39    |  0.00000 | -0.13844 | i  |  39,  0,  0 | Act_Identity |          | 
 40 |          | Input_40    |  0.00000 |  0.14594 | i  |  40,  0,  0 | Act_Identity |          | 
 41 |          | Input_41    |  0.00000 | -0.13908 | i  |  41,  0,  0 | Act_Identity |          | 
 42 |          | Input_42    |  0.00000 | -0.14408 | i  |  42,  0,  0 | Act_Identity |          | 
 43 |          | Input_43    |  0.00000 | -0.27663 | i  |  43,  0,  0 | Act_Identity |          | 
 44 |          | Input_44    |  0.00000 |  0.02372 | i  |  44,  0,  0 | Act_Identity |          | 
 45 |          | Input_45    |  0.00000 | -0.10228 | i  |  45,  0,  0 | Act_Identity |          | 
 46 |          | Input_46    |  0.00000 |  0.29315 | i  |  46,  0,  0 | Act_Identity |          | 
 47 |          | Input_47    |  0.00000 |  0.25302 | i  |  47,  0,  0 | Act_Identity |          | 
 48 |          | Input_48    |  0.00000 |  0.09134 | i  |  48,  0,  0 | Act_Identity |          | 
 49 |          | Input_49    |  0.00000 |  0.28617 | i  |  49,  0,  0 | Act_Identity |          | 
 50 |          | Input_50    |  0.00000 |  0.15854 | i  |  50,  0,  0 | Act_Identity |          | 
 51 |          | Input_51    |  0.00000 |  0.25653 | i  |  51,  0,  0 | Act_Identity |          | 
 52 |          | Input_52    |  1.00000 |  0.04415 | i  |  52,  0,  0 | Act_Identity |          | 
 53 |          | Input_53    |  0.00000 | -0.10761 | i  |  53,  0,  0 | Act_Identity |          | 
 54 |          | Input_54    |  0.00000 |  0.16528 | i  |  54,  0,  0 | Act_Identity |          | 
 55 |          | Input_55    |  0.00000 |  0.15492 | i  |  55,  0,  0 | Act_Identity |          | 
 56 |          | Input_56    |  0.00000 |  0.13087 | i  |  56,  0,  0 | Act_Identity |          | 
 57 |          | Input_57    |  0.00000 |  0.09913 | i  |  57,  0,  0 | Act_Identity |          | 
 58 |          | Input_58    |  0.00000 |  0.06521 | i  |  58,  0,  0 | Act_Identity |          | 
 59 |          | Input_59    |  0.00000 | -0.27849 | i  |  59,  0,  0 | Act_Identity |          | 
 60 |          | Input_60    |  0.00000 |  0.16091 | i  |  60,  0,  0 | Act_Identity |          | 
 61 |          | Input_61    |  0.00000 |  0.09215 | i  |  61,  0,  0 | Act_Identity |          | 
 62 |          | Input_62    |  0.00000 |  0.10850 | i  |  62,  0,  0 | Act_Identity |          | 
 63 |          | Input_63    |  0.00000 |  0.04328 | i  |  63,  0,  0 | Act_Identity |          | 
 64 |          | Input_64    |  0.00000 |  0.00490 | i  |  64,  0,  0 | Act_Identity |          | 
 65 |          | Input_65    |  0.00000 | -0.05122 | i  |  65,  0,  0 | Act_Identity |          | 
 66 |          | Input_66    |  0.00000 | -0.00146 | i  |  66,  0,  0 | Act_Identity |          | 
 67 |          | Input_67    |  0.00000 |  0.12663 | i  |  67,  0,  0 | Act_Identity |          | 
 68 |          | Input_68    |  0.00000 |  0.04223 | i  |  68,  0,  0 | Act_Identity |          | 
 69 |          | Input_69    |  0.00000 | -0.22633 | i  |  69,  0,  0 | Act_Identity |          | 
 70 |          | Input_70    |  1.00000 |  0.28819 | i  |  70,  0,  0 | Act_Identity |          | 
 71 |          | Input_71    |  0.00000 | -0.11184 | i  |  71,  0,  0 | Act_Identity |          | 
 72 |          | Input_72    |  0.00000 | -0.06541 | i  |  72,  0,  0 | Act_Identity |          | 
 73 |          | Input_73    |  0.00000 | -0.15589 | i  |  73,  0,  0 | Act_Identity |          | 
 74 |          | Input_74    |  0.00000 | -0.08847 | i  |  74,  0,  0 | Act_Identity |          | 
 75 |          | Input_75    |  0.00000 |  0.25831 | i  |  75,  0,  0 | Act_Identity |          | 
 76 |          | Input_76    |  0.00000 |  0.04183 | i  |  76,  0,  0 | Act_Identity |          | 
 77 |          | Input_77    |  0.00000 | -0.09531 | i  |  77,  0,  0 | Act_Identity |          | 
 78 |          | Input_78    |  0.00000 |  0.21133 | i  |  78,  0,  0 | Act_Identity |          | 
 79 |          | Input_79    |  0.00000 | -0.16683 | i  |  79,  0,  0 | Act_Identity |          | 
 80 |          | Input_80    |  0.00000 | -0.10914 | i  |  80,  0,  0 | Act_Identity |          | 
 81 |          | Input_81    |  0.00000 |  0.06987 | i  |  81,  0,  0 | Act_Identity |          | 
 82 |          | Input_82    |  0.00000 | -0.21030 | i  |  82,  0,  0 | Act_Identity |          | 
 83 |          | Input_83    |  0.00000 |  0.23501 | i  |  83,  0,  0 | Act_Identity |          | 
 84 |          | Input_84    |  0.00000 |  0.26226 | i  |  84,  0,  0 | Act_Identity |          | 
 85 |          | Input_85    |  0.00000 |  0.25498 | i  |  85,  0,  0 | Act_Identity |          | 
 86 |          | Input_86    |  0.00000 |  0.08993 | i  |  86,  0,  0 | Act_Identity |          | 
 87 |          | Input_87    |  0.00000 |  0.09313 | i  |  87,  0,  0 | Act_Identity |          | 
 88 |          | Input_88    |  0.00000 |  0.05411 | i  |  88,  0,  0 | Act_Identity |          | 
 89 |          | Input_89    |  0.00000 | -0.14486 | i  |  89,  0,  0 | Act_Identity |          | 
 90 |          | Input_90    |  0.00000 |  0.11464 | i  |  90,  0,  0 | Act_Identity |          | 
 91 |          | Input_91    |  0.00000 | -0.08498 | i  |  91,  0,  0 | Act_Identity |          | 
 92 |          | Input_92    |  0.00000 |  0.24729 | i  |  92,  0,  0 | Act_Identity |          | 
 93 |          | Input_93    |  0.00000 | -0.07685 | i  |  93,  0,  0 | Act_Identity |          | 
 94 |          | Input_94    |  0.00000 |  0.25831 | i  |  94,  0,  0 | Act_Identity |          | 
 95 |          | Input_95    |  0.00000 | -0.04781 | i  |  95,  0,  0 | Act_Identity |          | 
 96 |          | Input_96    |  0.00000 |  0.17192 | i  |  96,  0,  0 | Act_Identity |          | 
 97 |          | Input_97    |  1.00000 | -0.04316 | i  |  97,  0,  0 | Act_Identity |          | 
 98 |          | Input_98    |  0.00000 | -0.22118 | i  |  98,  0,  0 | Act_Identity |          | 
 99 |          | Input_99    |  0.00000 | -0.08585 | i  |  99,  0,  0 | Act_Identity |          | 
100 |          | Input_100   |  0.00000 |  0.03051 | i  | 100,  0,  0 | Act_Identity |          | 
101 |          | Input_101   |  0.00000 | -0.23299 | i  | 101,  0,  0 | Act_Identity |          | 
102 |          | Input_102   |  0.00000 |  0.10231 | i  | 102,  0,  0 | Act_Identity |          | 
103 |          | Input_103   |  1.00000 |  0.26510 | i  | 103,  0,  0 | Act_Identity |          | 
104 |          | Input_104   |  0.00000 | -0.08888 | i  | 104,  0,  0 | Act_Identity |          | 
105 |          | Input_105   |  0.00000 | -0.28615 | i  | 105,  0,  0 | Act_Identity |          | 
106 |          | Input_106   |  0.00000 |  0.22341 | i  | 106,  0,  0 | Act_Identity |          | 
107 |          | Input_107   |  0.00000 |  0.25294 | i  | 107,  0,  0 | Act_Identity |          | 
108 |          | Input_108   |  0.00000 | -0.08147 | i  | 108,  0,  0 | Act_Identity |          | 
109 |          | Input_109   |  0.00000 |  0.13475 | i  | 109,  0,  0 | Act_Identity |          | 
110 |          | Input_110   |  0.00000 | -0.21389 | i  | 110,  0,  0 | Act_Identity |          | 
111 |          | Input_111   |  0.00000 |  0.10939 | i  | 111,  0,  0 | Act_Identity |          | 
112 |          | Input_112   |  0.00000 | -0.09538 | i  | 112,  0,  0 | Act_Identity |          | 
113 |          | Input_113   |  0.00000 | -0.12418 | i  | 113,  0,  0 | Act_Identity |          | 
114 |          | Input_114   |  0.00000 |  0.04440 | i  | 114,  0,  0 | Act_Identity |          | 
115 |          | Input_115   |  0.00000 | -0.13312 | i  | 115,  0,  0 | Act_Identity |          | 
116 |          | Input_116   |  0.00000 | -0.16921 | i  | 116,  0,  0 | Act_Identity |          | 
117 |          | Input_117   |  0.00000 | -0.16567 | i  | 117,  0,  0 | Act_Identity |          | 
118 |          | Input_118   |  0.00000 |  0.26001 | i  | 118,  0,  0 | Act_Identity |          | 
119 |          | Input_119   |  0.00000 |  0.18490 | i  | 119,  0,  0 | Act_Identity |          | 
120 |          | Input_120   |  0.00000 | -0.01053 | i  | 120,  0,  0 | Act_Identity |          | 
121 |          | Input_121   |  0.00000 |  0.07465 | i  | 121,  0,  0 | Act_Identity |          | 
122 |          | Input_122   |  0.00000 | -0.20007 | i  | 122,  0,  0 | Act_Identity |          | 
123 |          | Input_123   |  0.00000 | -0.06323 | i  | 123,  0,  0 | Act_Identity |          | 
124 |          | Input_124   |  0.00000 |  0.29780 | i  | 124,  0,  0 | Act_Identity |          | 
125 |          | Input_125   |  0.00000 | -0.24177 | i  | 125,  0,  0 | Act_Identity |          | 
126 |          | Input_126   |  0.00000 |  0.18896 | i  | 126,  0,  0 | Act_Identity |          | 
127 |          | Input_127   |  0.00000 |  0.16972 | i  | 127,  0,  0 | Act_Identity |          | 
128 |          | Input_128   |  1.00000 |  0.01507 | i  | 128,  0,  0 | Act_Identity |          | 
129 |          | Input_129   |  0.00000 |  0.26777 | i  | 129,  0,  0 | Act_Identity |          | 
130 |          | Input_130   |  0.00000 | -0.21613 | i  | 130,  0,  0 | Act_Identity |          | 
131 |          | Input_131   |  0.00000 | -0.25442 | i  | 131,  0,  0 | Act_Identity |          | 
132 |          | Input_132   |  0.00000 | -0.26522 | i  | 132,  0,  0 | Act_Identity |          | 
133 |          | Input_133   |  0.00000 |  0.18619 | i  | 133,  0,  0 | Act_Identity |          | 
134 |          | Input_134   |  0.00000 | -0.28931 | i  | 134,  0,  0 | Act_Identity |          | 
135 |          | Input_135   |  0.00000 | -0.05410 | i  | 135,  0,  0 | Act_Identity |          | 
136 |          | Input_136   |  0.00000 |  0.20003 | i  | 136,  0,  0 | Act_Identity |          | 
137 |          | Input_137   |  0.00000 |  0.23410 | i  | 137,  0,  0 | Act_Identity |          | 
138 |          | Input_138   |  0.00000 | -0.10116 | i  | 138,  0,  0 | Act_Identity |          | 
139 |          | Input_139   |  0.00000 | -0.18143 | i  | 139,  0,  0 | Act_Identity |          | 
140 |          | Input_140   |  0.00000 |  0.06885 | i  | 140,  0,  0 | Act_Identity |          | 
141 |          | Input_141   |  0.00000 | -0.01504 | i  | 141,  0,  0 | Act_Identity |          | 
142 |          | Input_142   |  0.00000 |  0.22796 | i  | 142,  0,  0 | Act_Identity |          | 
143 |          | Input_143   |  0.00000 |  0.27346 | i  | 143,  0,  0 | Act_Identity |          | 
144 |          | Input_144   |  0.00000 |  0.16077 | i  | 144,  0,  0 | Act_Identity |          | 
145 |          | Input_145   |  0.00000 | -0.02764 | i  | 145,  0,  0 | Act_Identity |          | 
146 |          | Input_146   |  1.00000 | -0.15966 | i  | 146,  0,  0 | Act_Identity |          | 
147 |          | Input_147   |  0.00000 |  0.29156 | i  | 147,  0,  0 | Act_Identity |          | 
148 |          | Input_148   |  0.00000 |  0.10669 | i  | 148,  0,  0 | Act_Identity |          | 
149 |          | Input_149   |  0.00000 | -0.19965 | i  | 149,  0,  0 | Act_Identity |          | 
150 |          | Input_150   |  0.00000 |  0.17647 | i  | 150,  0,  0 | Act_Identity |          | 
151 |          | Input_151   |  0.00000 | -0.20384 | i  | 151,  0,  0 | Act_Identity |          | 
152 |          | Input_152   |  0.00000 |  0.17501 | i  | 152,  0,  0 | Act_Identity |          | 
153 |          | Input_153   |  0.00000 |  0.27639 | i  | 153,  0,  0 | Act_Identity |          | 
154 |          | Input_154   |  0.00000 |  0.03293 | i  | 154,  0,  0 | Act_Identity |          | 
155 |          | Input_155   |  0.00000 |  0.17281 | i  | 155,  0,  0 | Act_Identity |          | 
156 |          | Input_156   |  0.00000 | -0.26538 | i  | 156,  0,  0 | Act_Identity |          | 
157 |          | Input_157   |  0.00000 | -0.07812 | i  | 157,  0,  0 | Act_Identity |          | 
158 |          | Input_158   |  0.00000 |  0.04253 | i  | 158,  0,  0 | Act_Identity |          | 
159 |          | Input_159   |  0.00000 |  0.04969 | i  | 159,  0,  0 | Act_Identity |          | 
160 |          | Input_160   |  0.00000 | -0.11034 | i  | 160,  0,  0 | Act_Identity |          | 
161 |          | Input_161   |  0.00000 |  0.12640 | i  | 161,  0,  0 | Act_Identity |          | 
162 |          | Input_162   |  1.00000 |  0.09528 | i  | 162,  0,  0 | Act_Identity |          | 
163 |          | Input_163   |  0.00000 | -0.07556 | i  | 163,  0,  0 | Act_Identity |          | 
164 |          | Input_164   |  0.00000 |  0.01259 | i  | 164,  0,  0 | Act_Identity |          | 
165 |          | Input_165   |  0.00000 |  0.10597 | i  | 165,  0,  0 | Act_Identity |          | 
166 |          | Input_166   |  0.00000 |  0.17034 | i  | 166,  0,  0 | Act_Identity |          | 
167 |          | Input_167   |  0.00000 | -0.08738 | i  | 167,  0,  0 | Act_Identity |          | 
168 |          | Input_168   |  0.00000 |  0.04007 | i  | 168,  0,  0 | Act_Identity |          | 
169 |          | Input_169   |  0.00000 | -0.23082 | i  | 169,  0,  0 | Act_Identity |          | 
170 |          | Input_170   |  0.00000 |  0.03119 | i  | 170,  0,  0 | Act_Identity |          | 
171 |          | Input_171   |  0.00000 | -0.19109 | i  | 171,  0,  0 | Act_Identity |          | 
172 |          | Input_172   |  0.00000 |  0.05414 | i  | 172,  0,  0 | Act_Identity |          | 
173 |          | Input_173   |  0.00000 | -0.04085 | i  | 173,  0,  0 | Act_Identity |          | 
174 |          | Input_174   |  0.00000 | -0.21763 | i  | 174,  0,  0 | Act_Identity |          | 
175 |          | Input_175   |  0.00000 | -0.08509 | i  | 175,  0,  0 | Act_Identity |          | 
176 |          | Input_176   |  0.00000 |  0.23151 | i  | 176,  0,  0 | Act_Identity |          | 
177 |          | Input_177   |  0.00000 | -0.07729 | i  | 177,  0,  0 | Act_Identity |          | 
178 |          | Input_178   |  0.00000 | -0.09352 | i  | 178,  0,  0 | Act_Identity |          | 
179 |          | Input_179   |  0.00000 |  0.03820 | i  | 179,  0,  0 | Act_Identity |          | 
180 |          | Input_180   |  0.00000 |  0.02307 | i  | 180,  0,  0 | Act_Identity |          | 
181 |          | Input_181   |  0.00000 | -0.21706 | i  | 181,  0,  0 | Act_Identity |          | 
182 |          | Input_182   |  1.00000 |  0.13436 | i  | 182,  0,  0 | Act_Identity |          | 
183 |          | Input_183   |  0.00000 | -0.10193 | i  | 183,  0,  0 | Act_Identity |          | 
184 |          | Input_184   |  0.00000 | -0.24067 | i  | 184,  0,  0 | Act_Identity |          | 
185 |          | Input_185   |  0.00000 | -0.13271 | i  | 185,  0,  0 | Act_Identity |          | 
186 |          | Input_186   |  0.00000 | -0.22912 | i  | 186,  0,  0 | Act_Identity |          | 
187 |          | Input_187   |  0.00000 | -0.20604 | i  | 187,  0,  0 | Act_Identity |          | 
188 |          | Input_188   |  0.00000 |  0.08917 | i  | 188,  0,  0 | Act_Identity |          | 
189 |          | Input_189   |  0.00000 |  0.11341 | i  | 189,  0,  0 | Act_Identity |          | 
190 |          | Input_190   |  0.00000 |  0.14365 | i  | 190,  0,  0 | Act_Identity |          | 
191 |          | Input_191   |  0.00000 |  0.27883 | i  | 191,  0,  0 | Act_Identity |          | 
192 |          | Input_192   |  0.00000 | -0.06018 | i  | 192,  0,  0 | Act_Identity |          | 
193 |          | Input_193   |  0.00000 | -0.06107 | i  | 193,  0,  0 | Act_Identity |          | 
194 |          | Input_194   |  0.00000 | -0.09673 | i  | 194,  0,  0 | Act_Identity |          | 
195 |          | Input_195   |  0.00000 |  0.25241 | i  | 195,  0,  0 | Act_Identity |          | 
196 |          | Input_196   |  0.00000 | -0.25510 | i  | 196,  0,  0 | Act_Identity |          | 
197 |          | Input_197   |  0.00000 | -0.22639 | i  | 197,  0,  0 | Act_Identity |          | 
198 |          | Input_198   |  0.00000 | -0.13497 | i  | 198,  0,  0 | Act_Identity |          | 
199 |          | Input_199   |  0.00000 |  0.08496 | i  | 199,  0,  0 | Act_Identity |          | 
200 |          | Input_200   |  0.00000 | -0.15721 | i  | 200,  0,  0 | Act_Identity |          | 
201 |          | Hidden_2_1  |  0.18941 | -0.07955 | h  |   1,  2,  0 |||
202 |          | Hidden_2_2  |  0.53961 |  0.13810 | h  |   2,  2,  0 |||
203 |          | Hidden_2_3  |  0.25571 | -0.26192 | h  |   3,  2,  0 |||
204 |          | Hidden_2_4  |  0.57432 | -0.35715 | h  |   4,  2,  0 |||
205 |          | Hidden_2_5  |  0.45269 |  0.04387 | h  |   5,  2,  0 |||
206 |          | Hidden_2_6  |  0.57265 | -0.24688 | h  |   6,  2,  0 |||
207 |          | Hidden_2_7  |  0.54944 | -0.22704 | h  |   7,  2,  0 |||
208 |          | Hidden_2_8  |  0.54280 |  0.17356 | h  |   8,  2,  0 |||
209 |          | Hidden_2_9  |  0.37424 | -0.38849 | h  |   9,  2,  0 |||
210 |          | Hidden_2_10 |  0.67180 |  0.00836 | h  |  10,  2,  0 |||
211 |          | Hidden_2_11 |  0.60302 |  0.10360 | h  |  11,  2,  0 |||
212 |          | Hidden_2_12 |  0.59395 | -0.11341 | h  |  12,  2,  0 |||
213 |          | Hidden_2_13 |  0.51587 | -0.09576 | h  |  13,  2,  0 |||
214 |          | Hidden_2_14 |  0.56189 |  0.20083 | h  |  14,  2,  0 |||
215 |          | Hidden_2_15 |  0.68599 | -0.03174 | h  |  15,  2,  0 |||
216 |          | Hidden_2_16 |  0.42494 | -0.07229 | h  |  16,  2,  0 |||
217 |          | Hidden_2_17 |  0.36927 |  0.03613 | h  |  17,  2,  0 |||
218 |          | Hidden_2_18 |  0.52932 |  0.04331 | h  |  18,  2,  0 |||
219 |          | Hidden_2_19 |  0.47079 | -0.16547 | h  |  19,  2,  0 |||
220 |          | Hidden_2_20 |  0.38987 |  0.03920 | h  |  20,  2,  0 |||
221 |          | Output_1    |  0.17822 | -0.26257 | o  |   1,  4,  0 |||
----|----------|-------------|----------|----------|----|-------------|--------------|----------|-------


connection definition section :

target | site | source:weight
-------|------|----------------------------------------------------------------------------------------------------------------
   201 |      | 200: 0.10770, 199: 0.22270, 198:-0.14335, 197: 0.18317, 196:-0.23479, 195:-0.28912, 194:-0.10170, 193: 0.03645,
                192: 0.06439, 191: 0.12769, 190: 0.24918, 189:-0.16388, 188:-0.11181, 187: 0.13171, 186: 0.06157, 185:-0.19269,
                184: 0.34438, 183:-0.06903, 182:-0.19115, 181: 0.10000, 180:-0.09886, 179:-0.12719, 178:-0.24401, 177: 0.07624,
                176:-0.28267, 175:-0.24661, 174: 0.07489, 173: 0.02523, 172: 0.13313, 171:-0.23635, 170:-0.03029, 169: 0.03579,
                168: 0.27240, 167: 0.05704, 166: 0.03686, 165:-0.27089, 164: 0.28181, 163: 0.21444, 162:-0.00034, 161: 0.09784,
                160: 0.12091, 159:-0.17247, 158: 0.30271, 157: 0.18230, 156:-0.51307, 155: 0.49605, 154:-0.11992, 153: 0.26038,
                152:-0.23503, 151:-0.21743, 150: 0.04608, 149:-0.08326, 148: 0.18842, 147: 0.04274, 146:-0.26772, 145:-0.40991,
                144: 0.23127, 143: 0.19338, 142:-0.00742, 141:-0.09985, 140: 0.17278, 139:-0.30359, 138:-0.14746, 137: 0.05612,
                136: 0.03658, 135:-0.15726, 134: 0.31575, 133: 0.04068, 132: 0.12994, 131: 0.10085, 130:-0.24328, 129:-0.02493,
                128:-0.00559, 127:-0.19111, 126:-0.17585, 125: 0.06880, 124: 0.17053, 123:-0.01040, 122:-0.11720, 121: 0.16098,
                120: 0.28860, 119:-0.17697, 118:-0.18848, 117: 0.06324, 116:-0.03401, 115:-0.22630, 114: 0.10018, 113: 0.12674,
                112:-0.12377, 111:-0.31755, 110:-0.25650, 109: 0.30294, 108:-0.23824, 107:-0.21195, 106: 0.09873, 105:-0.25953,
                104: 0.15590, 103:-0.03464, 102:-0.05557, 101: 0.14574, 100: 0.06497,  99: 0.17267,  98:-0.24881,  97:-0.25877,
                 96: 0.38639,  95:-0.20295,  94: 0.13704,  93: 0.07266,  92: 0.18488,  91:-0.35875,  90:-0.00010,  89: 0.27555,
                 88:-0.31868,  87: 0.00031,  86:-0.04561,  85: 0.35607,  84: 0.14677,  83:-0.13857,  82: 0.12644,  81: 0.41402,
                 80:-0.12561,  79: 0.05545,  78: 0.24200,  77: 0.11869,  76: 0.20596,  75:-0.17361,  74: 0.25884,  73: 0.18076,
                 72: 0.24334,  71:-0.10628,  70:-0.05092,  69:-0.16229,  68:-0.17101,  67:-0.15001,  66: 0.05286,  65:-0.24662,
                 64: 0.15635,  63:-0.17391,  62: 0.59949,  61: 0.11220,  60:-0.18803,  59:-0.11979,  58: 0.16788,  57: 0.14799,
                 56: 0.25619,  55:-0.33355,  54: 0.08884,  53: 0.21366,  52: 0.02823,  51:-0.16435,  50: 0.17505,  49: 0.21358,
                 48: 0.03014,  47: 0.10458,  46: 0.20759,  45: 0.00578,  44:-0.31776,  43:-0.07224,  42: 0.26650,  41: 0.20331,
                 40:-0.25850,  39: 0.29123,  38:-0.17792,  37:-0.08532,  36:-0.16402,  35:-0.01610,  34: 0.09207,  33:-0.22316,
                 32: 0.37242,  31: 0.12197,  30: 0.33239,  29:-0.15749,  28: 0.07930,  27: 0.00370,  26:-0.28447,  25: 0.08903,
                 24:-0.46808,  23: 0.07197,  22: 0.15568,  21:-0.02495,  20: 0.17691,  19:-0.15106,  18:-0.02375,  17: 0.03481,
                 16: 0.01936,  15:-0.12532,  14:-0.09688,  13:-0.19894,  12: 0.13469,  11: 0.09681,  10: 0.25905,   9: 0.27337,
                  8: 0.06799,   7:-0.30305,   6:-0.14119,   5: 0.29706,   4: 0.11154,   3: 0.23113,   2:-0.27160,   1: 0.07647
   202 |      | 200:-0.12799, 199:-0.27120, 198: 0.27799, 197: 0.27290, 196:-0.03941, 195: 0.21657, 194: 0.14952, 193: 0.24427,
                192:-0.22270, 191:-0.08498, 190:-0.03769, 189: 0.13254, 188: 0.03593, 187: 0.06968, 186:-0.01255, 185: 0.37005,
                184: 0.02470, 183:-0.12023, 182:-0.03350, 181:-0.03163, 180:-0.20570, 179: 0.16060, 178:-0.29910, 177:-0.10714,
                176: 0.49392, 175: 0.32865, 174: 0.44608, 173: 0.27292, 172: 0.29507, 171: 0.06758, 170:-0.22603, 169: 0.30744,
                168: 0.07637, 167:-0.18725, 166: 0.12514, 165:-0.24162, 164:-0.04797, 163:-0.02985, 162:-0.19489, 161:-0.01192,
                160: 0.14208, 159: 0.32067, 158:-0.23902, 157: 0.09897, 156: 0.35591, 155:-0.62917, 154:-0.15310, 153:-0.04515,
                152: 0.14642, 151: 0.36467, 150: 0.24772, 149:-0.28325, 148:-0.13453, 147: 0.36610, 146:-0.15042, 145: 0.16416,
                144: 0.10374, 143:-0.13249, 142: 0.00606, 141: 0.42243, 140: 0.29577, 139:-0.03003, 138: 0.12904, 137: 0.27300,
                136: 0.14399, 135: 0.47722, 134:-0.07160, 133:-0.22920, 132: 0.19634, 131:-0.65848, 130: 0.26216, 129: 0.01027,
                128: 0.34959, 127:-0.32795, 126:-0.05715, 125:-0.04526, 124: 0.06987, 123: 0.01775, 122: 0.40525, 121: 0.08041,
                120:-0.19355, 119: 0.06302, 118: 0.03035, 117: 0.16742, 116: 0.39388, 115: 0.28726, 114:-0.18779, 113:-0.08783,
                112:-0.44806, 111: 0.27720, 110: 0.00133, 109:-0.39874, 108: 0.39219, 107: 0.01130, 106: 0.17244, 105:-0.10999,
                104: 0.42869, 103: 0.13545, 102: 0.17074, 101: 0.06819, 100: 0.21348,  99:-0.07104,  98:-0.07976,  97: 0.34308,
                 96:-0.25556,  95: 0.20109,  94:-0.03107,  93:-0.23422,  92: 0.39488,  91: 0.18682,  90: 0.02232,  89:-0.23993,
                 88: 0.10168,  87:-0.10139,  86: 0.36905,  85:-0.38876,  84: 0.38562,  83:-0.25223,  82:-0.21783,  81: 0.00233,
                 80: 0.24866,  79:-0.17680,  78:-0.32639,  77: 0.07530,  76: 0.04937,  75:-0.07077,  74: 0.12442,  73:-0.01720,
                 72: 0.01518,  71: 0.05513,  70:-0.12307,  69: 0.28000,  68: 0.12535,  67: 0.34490,  66: 0.02778,  65:-0.18937,
                 64:-0.11462,  63:-0.18914,  62:-1.02780,  61:-0.14679,  60: 0.21445,  59: 0.06758,  58:-0.21019,  57: 0.09272,
                 56: 0.19333,  55: 0.13246,  54: 0.21938,  53: 0.07048,  52:-0.16719,  51:-0.02284,  50: 0.07209,  49: 0.37447,
                 48: 0.39940,  47: 0.04834,  46:-0.15733,  45:-0.05381,  44: 0.19180,  43: 0.03661,  42:-0.40479,  41: 0.05981,
                 40: 0.02714,  39: 0.16322,  38:-0.09633,  37:-0.21142,  36: 0.20223,  35:-0.02352,  34:-0.29277,  33: 0.24306,
                 32:-0.38876,  31:-0.55964,  30: 0.13502,  29: 0.30664,  28: 0.20920,  27: 0.01909,  26: 0.03946,  25: 0.04080,
                 24: 0.15122,  23: 0.04462,  22:-0.31639,  21: 0.08849,  20: 0.34444,  19: 0.22675,  18: 0.02919,  17: 0.21572,
                 16: 0.43181,  15:-0.28959,  14:-0.32685,  13:-0.32984,  12:-0.14401,  11: 0.22360,  10: 0.01816,   9: 0.05636,
                  8: 0.11042,   7:-0.23965,   6: 0.25154,   5:-0.14064,   4:-0.17750,   3: 0.22718,   2:-0.09057,   1:-0.00177
   203 |      | 200:-0.15995, 199:-0.27183, 198:-0.27751, 197:-0.06194, 196:-0.00060, 195: 0.05497, 194: 0.15875, 193: 0.22130,
                192: 0.20222, 191:-0.08678, 190: 0.21903, 189: 0.05036, 188: 0.28875, 187:-0.03080, 186:-0.22403, 185: 0.25285,
                184: 0.06464, 183:-0.08317, 182:-0.10013, 181:-0.06482, 180:-0.24682, 179:-0.32544, 178:-0.16315, 177:-0.20812,
                176: 0.12873, 175: 0.11063, 174:-0.15585, 173: 0.12608, 172:-0.25962, 171: 0.09919, 170: 0.24399, 169:-0.08274,
                168: 0.10643, 167: 0.24678, 166: 0.19446, 165:-0.20439, 164: 0.09076, 163: 0.03902, 162:-0.31826, 161: 0.01112,
                160: 0.26508, 159: 0.14468, 158:-0.21572, 157: 0.20936, 156:-0.25402, 155: 0.08403, 154: 0.24412, 153: 0.14281,
                152: 0.09019, 151:-0.24090, 150:-0.23329, 149: 0.12646, 148:-0.16403, 147:-0.11012, 146: 0.22958, 145: 0.23660,
                144:-0.22867, 143:-0.18073, 142: 0.09453, 141:-0.26685, 140: 0.16976, 139: 0.05321, 138: 0.03126, 137:-0.06375,
                136:-0.02157, 135:-0.22581, 134: 0.12806, 133:-0.22396, 132: 0.28881, 131: 0.17235, 130: 0.01531, 129: 0.26418,
                128:-0.10628, 127: 0.14438, 126: 0.15633, 125: 0.05637, 124: 0.28636, 123: 0.11451, 122:-0.16296, 121: 0.05790,
                120: 0.25877, 119:-0.00570, 118:-0.11913, 117:-0.26655, 116: 0.10088, 115:-0.21328, 114:-0.25873, 113: 0.26128,
                112:-0.00978, 111: 0.09262, 110: 0.29417, 109:-0.16264, 108:-0.12367, 107:-0.01901, 106: 0.08474, 105: 0.24813,
                104: 0.17076, 103:-0.16363, 102:-0.32498, 101: 0.22840, 100: 0.15986,  99: 0.04402,  98: 0.16454,  97:-0.24102,
                 96:-0.03260,  95: 0.00207,  94: 0.09421,  93:-0.17301,  92:-0.15926,  91: 0.20881,  90: 0.20409,  89:-0.16082,
                 88:-0.13258,  87:-0.26023,  86:-0.16633,  85:-0.16309,  84:-0.14331,  83:-0.09904,  82:-0.20672,  81: 0.18572,
                 80:-0.30804,  79:-0.27463,  78: 0.23644,  77:-0.06036,  76: 0.00697,  75:-0.06496,  74:-0.07125,  73:-0.04606,
                 72: 0.14705,  71:-0.12049,  70:-0.15444,  69:-0.06386,  68: 0.25933,  67:-0.34746,  66: 0.04497,  65:-0.18432,
                 64: 0.03941,  63:-0.17950,  62: 0.25034,  61: 0.21010,  60:-0.23723,  59:-0.12493,  58:-0.21257,  57: 0.05692,
                 56:-0.06846,  55:-0.13847,  54: 0.15058,  53: 0.15558,  52: 0.15912,  51: 0.18005,  50:-0.02724,  49: 0.13941,
                 48: 0.14213,  47:-0.09092,  46:-0.14488,  45:-0.09182,  44: 0.16363,  43:-0.00554,  42: 0.33523,  41: 0.00272,
                 40: 0.25906,  39:-0.22998,  38: 0.26496,  37: 0.23239,  36:-0.27482,  35:-0.05880,  34:-0.19237,  33: 0.10650,
                 32: 0.17357,  31: 0.16302,  30: 0.09138,  29: 0.18857,  28: 0.22752,  27: 0.07341,  26:-0.04543,  25:-0.10398,
                 24:-0.30996,  23:-0.21540,  22:-0.17486,  21: 0.17084,  20: 0.26396,  19: 0.00725,  18: 0.05558,  17: 0.17069,
                 16: 0.11849,  15: 0.19855,  14:-0.15249,  13: 0.14910,  12:-0.08517,  11: 0.29266,  10:-0.15812,   9:-0.08247,
                  8:-0.23374,   7:-0.23428,   6:-0.16034,   5:-0.18019,   4: 0.05601,   3:-0.05364,   2: 0.19871,   1:-0.13064
   204 |      | 200:-0.05098, 199:-0.17874, 198: 0.23519, 197:-0.21496, 196: 0.10241, 195:-0.16673, 194:-0.16405, 193: 0.22960,
                192:-0.12596, 191:-0.29572, 190: 0.21125, 189: 0.20806, 188: 0.06631, 187: 0.12444, 186: 0.11793, 185:-0.03485,
                184: 0.22194, 183:-0.07679, 182: 0.15903, 181: 0.23030, 180: 0.03898, 179:-0.22160, 178: 0.27558, 177: 0.11620,
                176:-0.06710, 175:-0.22889, 174:-0.10160, 173: 0.16470, 172: 0.26703, 171: 0.06763, 170: 0.15919, 169:-0.08611,
                168: 0.19652, 167: 0.09088, 166:-0.01658, 165: 0.01191, 164: 0.19782, 163: 0.11844, 162:-0.04331, 161:-0.23191,
                160: 0.15000, 159:-0.11833, 158: 0.27963, 157:-0.06741, 156:-0.27316, 155:-0.02392, 154: 0.17994, 153: 0.24213,
                152:-0.27162, 151: 0.06907, 150: 0.17934, 149: 0.07329, 148: 0.11616, 147: 0.16107, 146:-0.11476, 145:-0.23583,
                144: 0.21373, 143: 0.07032, 142: 0.22558, 141: 0.21028, 140:-0.14629, 139: 0.07021, 138:-0.20609, 137:-0.22949,
                136:-0.12280, 135: 0.14696, 134: 0.05674, 133:-0.21605, 132:-0.09656, 131:-0.32423, 130:-0.10759, 129:-0.24487,
                128:-0.08343, 127:-0.15201, 126:-0.00660, 125:-0.09316, 124: 0.26328, 123:-0.12764, 122:-0.13045, 121: 0.27637,
                120: 0.21146, 119:-0.27823, 118: 0.06571, 117: 0.04803, 116: 0.20912, 115: 0.26189, 114: 0.09297, 113: 0.09713,
                112: 0.00626, 111: 0.02806, 110: 0.00810, 109: 0.17520, 108:-0.20107, 107: 0.11301, 106: 0.24767, 105:-0.04475,
                104:-0.09030, 103: 0.03147, 102: 0.06212, 101: 0.09001, 100: 0.07381,  99: 0.23801,  98: 0.15936,  97: 0.27706,
                 96:-0.26695,  95:-0.13190,  94:-0.09688,  93:-0.22379,  92: 0.03164,  91: 0.07600,  90:-0.23600,  89:-0.06571,
                 88: 0.11465,  87: 0.14513,  86: 0.29226,  85:-0.02354,  84: 0.09809,  83: 0.09017,  82:-0.23550,  81:-0.21178,
                 80:-0.17598,  79: 0.10562,  78:-0.29786,  77:-0.08669,  76:-0.07734,  75: 0.28129,  74: 0.15254,  73: 0.11698,
                 72:-0.01681,  71:-0.07777,  70:-0.07995,  69:-0.21442,  68:-0.14590,  67:-0.20479,  66:-0.23733,  65:-0.03859,
                 64:-0.06613,  63:-0.03357,  62:-0.13323,  61: 0.26172,  60:-0.26556,  59: 0.09109,  58:-0.12410,  57: 0.10566,
                 56:-0.07435,  55:-0.10482,  54:-0.20361,  53:-0.28824,  52: 0.25111,  51:-0.10288,  50:-0.17345,  49:-0.21289,
                 48:-0.28857,  47:-0.17157,  46:-0.03250,  45:-0.07652,  44:-0.19706,  43:-0.15420,  42:-0.33937,  41: 0.09724,
                 40: 0.04667,  39:-0.06090,  38: 0.17621,  37: 0.19822,  36: 0.04570,  35: 0.25841,  34:-0.15551,  33: 0.25351,
                 32:-0.10921,  31: 0.13020,  30: 0.18863,  29:-0.05947,  28:-0.02695,  27:-0.20339,  26:-0.25791,  25: 0.19069,
                 24:-0.02461,  23:-0.14947,  22: 0.14918,  21:-0.06240,  20: 0.04562,  19:-0.27315,  18: 0.01225,  17: 0.04265,
                 16:-0.11456,  15: 0.28405,  14: 0.25087,  13:-0.06117,  12:-0.16364,  11: 0.29198,  10:-0.25488,   9: 0.17336,
                  8:-0.07448,   7: 0.22767,   6: 0.07534,   5: 0.26418,   4: 0.17003,   3: 0.22122,   2: 0.21965,   1:-0.21228
   205 |      | 200: 0.18442, 199:-0.01640, 198:-0.22840, 197: 0.25841, 196: 0.05125, 195: 0.28935, 194:-0.11719, 193: 0.16844,
                192: 0.17193, 191: 0.12217, 190:-0.16682, 189: 0.25616, 188:-0.20013, 187: 0.25510, 186:-0.22283, 185:-0.12877,
                184: 0.18263, 183:-0.01961, 182:-0.09427, 181: 0.21587, 180: 0.03662, 179:-0.11762, 178:-0.13996, 177:-0.01772,
                176: 0.26101, 175:-0.14497, 174:-0.10553, 173: 0.16666, 172:-0.21242, 171:-0.11665, 170:-0.05630, 169: 0.22856,
                168: 0.18575, 167: 0.03236, 166: 0.14285, 165:-0.02649, 164:-0.07668, 163:-0.25102, 162:-0.12377, 161:-0.20210,
                160: 0.15865, 159: 0.08911, 158:-0.27141, 157: 0.32297, 156: 0.12505, 155:-0.42183, 154:-0.19435, 153:-0.00978,
                152: 0.06835, 151: 0.10483, 150:-0.07951, 149:-0.16033, 148: 0.16924, 147: 0.10156, 146: 0.10423, 145: 0.19404,
                144: 0.19168, 143: 0.25446, 142: 0.02129, 141:-0.21231, 140:-0.10827, 139: 0.24867, 138: 0.22418, 137:-0.15605,
                136: 0.00640, 135: 0.19947, 134:-0.01148, 133: 0.24327, 132: 0.09874, 131: 0.10897, 130:-0.17893, 129:-0.03983,
                128: 0.04570, 127:-0.18329, 126: 0.01319, 125:-0.23094, 124:-0.06012, 123: 0.10938, 122: 0.11272, 121:-0.26399,
                120:-0.17452, 119: 0.25074, 118:-0.12015, 117:-0.23140, 116: 0.13491, 115: 0.29525, 114: 0.20051, 113:-0.04389,
                112: 0.15536, 111:-0.02495, 110: 0.04575, 109:-0.20277, 108:-0.11210, 107: 0.02580, 106:-0.08110, 105: 0.11781,
                104:-0.15330, 103:-0.28240, 102: 0.13558, 101: 0.16663, 100:-0.30783,  99: 0.18325,  98:-0.13144,  97: 0.05728,
                 96:-0.36789,  95: 0.18258,  94: 0.12843,  93:-0.02651,  92:-0.01620,  91:-0.02123,  90:-0.00488,  89: 0.06681,
                 88:-0.02801,  87: 0.20901,  86: 0.16899,  85: 0.24756,  84: 0.18935,  83: 0.03916,  82:-0.09333,  81: 0.01774,
                 80: 0.32096,  79:-0.25729,  78: 0.22402,  77:-0.15447,  76: 0.02187,  75:-0.03550,  74: 0.21934,  73: 0.12698,
                 72:-0.11894,  71: 0.07645,  70: 0.03977,  69:-0.00350,  68:-0.08862,  67: 0.27219,  66:-0.31977,  65:-0.05024,
                 64: 0.08282,  63: 0.14059,  62:-0.09636,  61: 0.31458,  60:-0.19211,  59:-0.11610,  58: 0.06042,  57:-0.06976,
                 56:-0.24356,  55:-0.00017,  54:-0.06267,  53: 0.21338,  52: 0.25238,  51: 0.20756,  50: 0.02434,  49: 0.28605,
                 48: 0.34281,  47:-0.06244,  46:-0.25288,  45: 0.04527,  44: 0.18592,  43:-0.22365,  42:-0.33096,  41:-0.18911,
                 40: 0.04784,  39: 0.13728,  38: 0.07679,  37: 0.25505,  36: 0.09387,  35: 0.14218,  34:-0.15818,  33:-0.14353,
                 32:-0.14028,  31:-0.34328,  30:-0.18988,  29: 0.01439,  28:-0.05050,  27: 0.27543,  26: 0.23807,  25: 0.00652,
                 24:-0.08250,  23:-0.11327,  22:-0.16851,  21:-0.17032,  20:-0.17246,  19: 0.25984,  18:-0.21130,  17:-0.19945,
                 16: 0.02760,  15:-0.15011,  14: 0.07835,  13:-0.27356,  12:-0.08920,  11: 0.25581,  10:-0.14028,   9: 0.21952,
                  8: 0.09356,   7: 0.28005,   6: 0.19709,   5:-0.11799,   4: 0.06843,   3:-0.25027,   2: 0.05966,   1: 0.29487
   206 |      | 200: 0.17881, 199:-0.04484, 198: 0.07081, 197: 0.10763, 196:-0.15378, 195:-0.24686, 194:-0.29771, 193: 0.01618,
                192:-0.00516, 191:-0.17347, 190: 0.17532, 189:-0.11219, 188:-0.03971, 187: 0.17891, 186: 0.13099, 185: 0.07925,
                184: 0.04660, 183: 0.25316, 182:-0.22402, 181:-0.03604, 180:-0.15091, 179: 0.24605, 178:-0.19757, 177:-0.19212,
                176: 0.08273, 175: 0.00006, 174: 0.13732, 173: 0.19426, 172:-0.20677, 171: 0.17755, 170:-0.26485, 169:-0.28141,
                168:-0.17966, 167: 0.07664, 166: 0.17349, 165:-0.05319, 164: 0.22766, 163: 0.17674, 162: 0.22587, 161:-0.05137,
                160:-0.29133, 159: 0.04348, 158: 0.16232, 157:-0.08777, 156:-0.15955, 155: 0.21291, 154:-0.22237, 153: 0.23203,
                152:-0.03092, 151:-0.24814, 150:-0.12081, 149: 0.09722, 148:-0.18389, 147:-0.02924, 146: 0.21256, 145: 0.17385,
                144:-0.26231, 143: 0.09124, 142: 0.10697, 141:-0.25372, 140:-0.06647, 139: 0.15685, 138:-0.15197, 137: 0.00603,
                136:-0.07710, 135:-0.43523, 134: 0.35222, 133:-0.13267, 132: 0.20659, 131: 0.34374, 130: 0.03588, 129: 0.22479,
                128:-0.05101, 127:-0.05988, 126:-0.18583, 125: 0.22557, 124: 0.22248, 123:-0.09980, 122: 0.09261, 121:-0.12591,
                120: 0.05377, 119:-0.23249, 118: 0.26147, 117: 0.10782, 116:-0.06296, 115: 0.14670, 114: 0.04590, 113: 0.08136,
                112: 0.03121, 111:-0.19805, 110: 0.12312, 109: 0.23500, 108:-0.29932, 107: 0.22287, 106:-0.04936, 105: 0.02846,
                104: 0.21006, 103:-0.08874, 102: 0.12551, 101: 0.19400, 100:-0.19723,  99:-0.05890,  98: 0.08547,  97: 0.04855,
                 96: 0.25256,  95: 0.17455,  94:-0.02836,  93: 0.05649,  92:-0.18361,  91:-0.27365,  90: 0.24619,  89: 0.20819,
                 88:-0.24358,  87: 0.15893,  86:-0.03446,  85: 0.18247,  84: 0.03841,  83:-0.24588,  82:-0.05464,  81:-0.17931,
                 80:-0.13511,  79: 0.29850,  78: 0.25586,  77:-0.06197,  76: 0.23654,  75:-0.20694,  74: 0.31393,  73: 0.21244,
                 72: 0.08990,  71: 0.13321,  70: 0.07039,  69: 0.10304,  68:-0.19546,  67:-0.20690,  66:-0.07565,  65: 0.25192,
                 64:-0.23770,  63: 0.16472,  62: 0.31934,  61:-0.09042,  60: 0.23155,  59:-0.01394,  58:-0.14610,  57:-0.16433,
                 56:-0.12795,  55: 0.04429,  54: 0.25582,  53: 0.27898,  52: 0.20936,  51:-0.15703,  50:-0.28064,  49:-0.23504,
                 48:-0.23171,  47: 0.26535,  46: 0.08377,  45:-0.24145,  44:-0.21206,  43:-0.01485,  42:-0.13406,  41: 0.15915,
                 40:-0.08073,  39: 0.11521,  38: 0.00112,  37: 0.04415,  36: 0.20583,  35: 0.13852,  34: 0.05279,  33:-0.28581,
                 32: 0.13604,  31:-0.11896,  30:-0.00424,  29: 0.01607,  28: 0.05800,  27: 0.03674,  26: 0.15432,  25: 0.25772,
                 24:-0.13420,  23: 0.08917,  22: 0.31465,  21:-0.19239,  20: 0.22359,  19: 0.23920,  18:-0.09145,  17:-0.23623,
                 16: 0.09091,  15: 0.27079,  14:-0.11269,  13:-0.22743,  12:-0.01123,  11:-0.14249,  10: 0.21676,   9: 0.25743,
                  8: 0.27385,   7:-0.12784,   6:-0.02097,   5: 0.20828,   4:-0.22242,   3:-0.26904,   2: 0.20449,   1: 0.14744
   207 |      | 200:-0.21090, 199:-0.03700, 198: 0.16115, 197: 0.19316, 196:-0.19576, 195: 0.06916, 194:-0.09002, 193: 0.26424,
                192: 0.01050, 191: 0.01890, 190: 0.32457, 189:-0.10282, 188: 0.25988, 187: 0.29143, 186:-0.13134, 185: 0.11628,
                184:-0.07290, 183:-0.05312, 182:-0.04379, 181: 0.02318, 180:-0.16122, 179:-0.23345, 178:-0.03543, 177:-0.00504,
                176: 0.02348, 175:-0.17652, 174: 0.02941, 173: 0.10718, 172:-0.29011, 171: 0.01459, 170: 0.25217, 169:-0.13095,
                168: 0.25332, 167: 0.08033, 166:-0.16708, 165:-0.27038, 164:-0.01048, 163: 0.01655, 162: 0.23436, 161: 0.32049,
                160:-0.27103, 159: 0.17899, 158:-0.03444, 157: 0.20854, 156: 0.05613, 155: 0.45288, 154: 0.14438, 153:-0.26843,
                152:-0.19376, 151:-0.32702, 150: 0.03267, 149:-0.09632, 148:-0.11529, 147:-0.31434, 146: 0.20888, 145: 0.15739,
                144:-0.10689, 143: 0.00883, 142: 0.01257, 141:-0.21659, 140: 0.26227, 139:-0.00570, 138: 0.06632, 137: 0.12862,
                136:-0.25699, 135:-0.01383, 134: 0.31310, 133: 0.02672, 132:-0.06410, 131: 0.33887, 130:-0.04367, 129:-0.02400,
                128: 0.03497, 127: 0.27792, 126:-0.14818, 125:-0.02546, 124: 0.08793, 123:-0.28739, 122:-0.09310, 121: 0.16282,
                120:-0.19657, 119:-0.21335, 118:-0.23798, 117:-0.10418, 116:-0.36721, 115: 0.24848, 114:-0.15164, 113:-0.05239,
                112: 0.06793, 111: 0.10253, 110: 0.01922, 109:-0.01223, 108:-0.15426, 107:-0.28037, 106:-0.15663, 105: 0.00849,
                104: 0.15200, 103: 0.32442, 102:-0.36038, 101:-0.09448, 100: 0.15172,  99: 0.00862,  98: 0.12842,  97:-0.11188,
                 96: 0.11207,  95:-0.34517,  94: 0.13638,  93:-0.29787,  92:-0.30686,  91:-0.28014,  90: 0.19230,  89:-0.15010,
                 88:-0.26452,  87: 0.19086,  86:-0.01461,  85:-0.08349,  84: 0.16389,  83: 0.17979,  82: 0.11959,  81: 0.00071,
                 80:-0.02369,  79:-0.23769,  78: 0.15734,  77: 0.21881,  76:-0.19384,  75: 0.15506,  74: 0.00013,  73:-0.25138,
                 72: 0.30073,  71:-0.06705,  70:-0.10730,  69: 0.01803,  68:-0.31989,  67:-0.36795,  66: 0.29903,  65:-0.08064,
                 64:-0.29316,  63: 0.10314,  62: 0.35244,  61:-0.24518,  60: 0.16019,  59:-0.15202,  58:-0.04921,  57:-0.20044,
                 56:-0.21854,  55: 0.13410,  54:-0.06802,  53:-0.27838,  52: 0.17082,  51: 0.27601,  50:-0.08789,  49:-0.16627,
                 48:-0.36198,  47:-0.21791,  46:-0.13149,  45:-0.19094,  44: 0.24330,  43: 0.00253,  42: 0.12891,  41: 0.22640,
                 40:-0.23077,  39: 0.15184,  38:-0.00721,  37:-0.22657,  36: 0.09408,  35:-0.12228,  34: 0.06333,  33: 0.14637,
                 32:-0.14210,  31:-0.14561,  30: 0.29853,  29:-0.35025,  28:-0.15258,  27:-0.20808,  26:-0.23656,  25:-0.05526,
                 24:-0.26381,  23:-0.03663,  22: 0.08959,  21: 0.24265,  20:-0.05946,  19: 0.15164,  18:-0.17083,  17:-0.03368,
                 16: 0.06055,  15:-0.02121,  14: 0.16948,  13: 0.27759,  12:-0.28776,  11:-0.26484,  10: 0.18442,   9:-0.15447,
                  8: 0.18108,   7:-0.18613,   6:-0.11129,   5:-0.00392,   4: 0.06437,   3: 0.25761,   2:-0.19525,   1: 0.13514
   208 |      | 200:-0.28810, 199: 0.21280, 198:-0.20382, 197:-0.12075, 196: 0.28220, 195: 0.00115, 194: 0.05315, 193: 0.02429,
                192: 0.27141, 191: 0.00594, 190:-0.24522, 189: 0.12006, 188: 0.13793, 187:-0.01035, 186: 0.07980, 185:-0.26535,
                184:-0.13932, 183: 0.02485, 182:-0.18477, 181:-0.14649, 180:-0.14194, 179:-0.12548, 178: 0.28274, 177:-0.03502,
                176: 0.04701, 175:-0.09808, 174:-0.26404, 173: 0.03246, 172: 0.00988, 171: 0.25836, 170: 0.00547, 169: 0.05135,
                168: 0.16103, 167: 0.07947, 166: 0.26818, 165: 0.14794, 164:-0.13296, 163: 0.01913, 162:-0.16329, 161:-0.13728,
                160:-0.29136, 159:-0.13620, 158: 0.29434, 157: 0.11651, 156: 0.08658, 155: 0.27515, 154: 0.20550, 153: 0.29720,
                152:-0.19027, 151: 0.25172, 150:-0.15797, 149:-0.03940, 148:-0.08510, 147:-0.18921, 146: 0.23308, 145: 0.24858,
                144: 0.07467, 143: 0.30508, 142:-0.00007, 141:-0.27385, 140: 0.24573, 139:-0.27556, 138: 0.15019, 137: 0.08057,
                136: 0.08434, 135:-0.02917, 134:-0.01073, 133: 0.26507, 132:-0.16228, 131: 0.18455, 130:-0.23915, 129:-0.13984,
                128: 0.24643, 127:-0.20913, 126: 0.25726, 125: 0.15202, 124: 0.15768, 123: 0.17609, 122: 0.09801, 121: 0.25620,
                120: 0.20453, 119: 0.30868, 118:-0.08545, 117:-0.22277, 116:-0.25793, 115:-0.17155, 114:-0.22375, 113: 0.21626,
                112:-0.11022, 111: 0.04972, 110: 0.24660, 109:-0.17225, 108: 0.09421, 107: 0.05712, 106: 0.19563, 105:-0.04117,
                104:-0.15304, 103:-0.16938, 102:-0.11966, 101: 0.04261, 100: 0.20933,  99:-0.00970,  98: 0.18207,  97: 0.16003,
                 96: 0.16406,  95: 0.11620,  94:-0.00334,  93:-0.10754,  92: 0.02565,  91:-0.22379,  90:-0.13697,  89:-0.04100,
                 88:-0.23584,  87: 0.04229,  86: 0.00287,  85:-0.04543,  84: 0.19704,  83: 0.09577,  82:-0.14255,  81:-0.16172,
                 80:-0.15335,  79:-0.23858,  78:-0.11545,  77:-0.31117,  76: 0.10563,  75:-0.29078,  74:-0.00895,  73:-0.28044,
                 72:-0.09409,  71: 0.16006,  70: 0.03970,  69:-0.23506,  68:-0.12976,  67:-0.12293,  66: 0.26749,  65: 0.22837,
                 64:-0.22692,  63:-0.03940,  62: 0.10518,  61: 0.11806,  60: 0.07580,  59: 0.00731,  58:-0.18456,  57: 0.24527,
                 56:-0.24490,  55: 0.06242,  54:-0.13177,  53:-0.28220,  52:-0.05372,  51:-0.02229,  50:-0.20283,  49: 0.08197,
                 48:-0.00871,  47:-0.02091,  46: 0.14759,  45:-0.13933,  44: 0.01491,  43:-0.24094,  42: 0.01999,  41: 0.21967,
                 40:-0.30877,  39: 0.27556,  38:-0.29010,  37:-0.12917,  36:-0.15610,  35: 0.22378,  34:-0.15512,  33:-0.02835,
                 32:-0.01600,  31: 0.04628,  30:-0.15268,  29:-0.27701,  28: 0.28140,  27:-0.12370,  26: 0.27891,  25:-0.21966,
                 24:-0.31216,  23:-0.17878,  22:-0.13144,  21:-0.05175,  20: 0.10422,  19:-0.11446,  18:-0.22330,  17:-0.15635,
                 16: 0.07575,  15: 0.20213,  14: 0.06117,  13:-0.07319,  12:-0.31902,  11: 0.23119,  10:-0.16041,   9:-0.28193,
                  8: 0.22408,   7:-0.18109,   6:-0.11984,   5:-0.20494,   4:-0.21631,   3: 0.02744,   2: 0.05128,   1: 0.02285
   209 |      | 200: 0.06179, 199: 0.13153, 198: 0.29402, 197:-0.28230, 196: 0.05832, 195:-0.27355, 194:-0.17619, 193: 0.24887,
                192:-0.16266, 191: 0.05897, 190: 0.22258, 189:-0.06258, 188: 0.21963, 187: 0.22830, 186:-0.13645, 185:-0.00553,
                184: 0.06551, 183: 0.14962, 182: 0.16632, 181:-0.05471, 180: 0.24259, 179: 0.00958, 178:-0.17229, 177:-0.23599,
                176: 0.14981, 175:-0.12829, 174:-0.20498, 173:-0.04730, 172: 0.20449, 171: 0.26774, 170:-0.00350, 169: 0.06282,
                168: 0.06934, 167:-0.03862, 166: 0.15386, 165:-0.19361, 164: 0.14612, 163: 0.25034, 162:-0.27809, 161: 0.29665,
                160: 0.06460, 159: 0.11915, 158:-0.00772, 157:-0.12766, 156:-0.08147, 155: 0.51992, 154:-0.26563, 153:-0.25221,
                152: 0.04384, 151: 0.02272, 150:-0.04835, 149:-0.04326, 148:-0.05314, 147: 0.04690, 146: 0.04769, 145:-0.27515,
                144: 0.33398, 143: 0.20433, 142: 0.04740, 141: 0.07947, 140: 0.08410, 139:-0.21591, 138:-0.00423, 137:-0.21922,
                136:-0.00363, 135:-0.39537, 134: 0.07824, 133:-0.14468, 132:-0.15812, 131: 0.20315, 130:-0.26337, 129: 0.22000,
                128:-0.20703, 127: 0.08684, 126:-0.25715, 125: 0.22163, 124:-0.06936, 123:-0.19705, 122: 0.16702, 121: 0.21800,
                120: 0.30246, 119:-0.00951, 118:-0.13167, 117:-0.16512, 116: 0.16683, 115: 0.15962, 114:-0.02662, 113: 0.36319,
                112: 0.22860, 111:-0.36510, 110: 0.14340, 109:-0.01619, 108:-0.22115, 107:-0.24636, 106: 0.08828, 105: 0.25143,
                104:-0.18449, 103: 0.32100, 102:-0.31457, 101: 0.08745, 100:-0.04894,  99:-0.14339,  98:-0.04466,  97: 0.02208,
                 96: 0.33031,  95:-0.01853,  94:-0.03847,  93:-0.20847,  92: 0.12030,  91:-0.22957,  90:-0.24972,  89: 0.19766,
                 88:-0.01271,  87:-0.15323,  86:-0.35846,  85: 0.17349,  84:-0.25625,  83:-0.00423,  82: 0.21721,  81: 0.34839,
                 80:-0.05663,  79:-0.07720,  78:-0.13365,  77: 0.14068,  76: 0.03128,  75: 0.06628,  74: 0.18888,  73: 0.24525,
                 72: 0.22873,  71: 0.14147,  70:-0.03012,  69:-0.27942,  68:-0.22747,  67: 0.10572,  66: 0.18193,  65: 0.25909,
                 64:-0.06263,  63:-0.21504,  62: 0.22503,  61:-0.16686,  60:-0.10066,  59:-0.15974,  58:-0.21836,  57:-0.14121,
                 56: 0.05455,  55:-0.38371,  54: 0.21964,  53: 0.17354,  52: 0.06757,  51: 0.03250,  50: 0.07889,  49:-0.29561,
                 48: 0.11472,  47: 0.25139,  46: 0.28397,  45:-0.08371,  44: 0.04138,  43:-0.03566,  42: 0.20398,  41:-0.05617,
                 40:-0.00593,  39: 0.26268,  38: 0.02804,  37: 0.10352,  36: 0.07900,  35:-0.24419,  34: 0.16067,  33:-0.23192,
                 32: 0.06292,  31: 0.36402,  30: 0.01937,  29: 0.20032,  28:-0.23853,  27:-0.08534,  26:-0.22912,  25: 0.12385,
                 24:-0.05977,  23:-0.32470,  22: 0.13619,  21:-0.19604,  20:-0.02875,  19:-0.25480,  18:-0.14747,  17:-0.08189,
                 16: 0.08319,  15:-0.17525,  14: 0.25680,  13: 0.17429,  12: 0.12162,  11:-0.16573,  10:-0.20212,   9:-0.08335,
                  8:-0.23359,   7: 0.04042,   6:-0.32715,   5: 0.18871,   4: 0.20804,   3: 0.13515,   2: 0.19207,   1:-0.13171
   210 |      | 200:-0.10483, 199:-0.11623, 198: 0.12355, 197: 0.19273, 196: 0.01012, 195:-0.06097, 194:-0.05642, 193: 0.03714,
                192: 0.20780, 191: 0.07452, 190:-0.28594, 189: 0.34017, 188: 0.16410, 187: 0.03685, 186: 0.30298, 185: 0.29234,
                184:-0.08431, 183: 0.06618, 182: 0.06591, 181: 0.06237, 180: 0.10418, 179: 0.31976, 178: 0.07331, 177:-0.12899,
                176: 0.31648, 175:-0.09574, 174:-0.17318, 173: 0.13418, 172:-0.20065, 171:-0.01810, 170:-0.11982, 169:-0.03907,
                168: 0.17379, 167:-0.27722, 166:-0.18193, 165:-0.08027, 164:-0.09921, 163: 0.08881, 162: 0.27283, 161:-0.19185,
                160:-0.17173, 159:-0.24412, 158:-0.17544, 157:-0.25898, 156: 0.14876, 155:-0.28364, 154: 0.26471, 153:-0.23154,
                152: 0.18155, 151: 0.09427, 150: 0.13387, 149: 0.01482, 148: 0.01847, 147:-0.07129, 146: 0.18277, 145: 0.10315,
                144: 0.08734, 143: 0.27656, 142:-0.10023, 141: 0.26881, 140: 0.01093, 139: 0.06529, 138:-0.12786, 137:-0.05461,
                136: 0.09667, 135: 0.05164, 134: 0.04660, 133:-0.28880, 132:-0.24604, 131: 0.00703, 130:-0.13808, 129:-0.11288,
                128: 0.16026, 127:-0.02229, 126:-0.05675, 125:-0.06453, 124: 0.11819, 123:-0.09747, 122: 0.04522, 121: 0.03401,
                120: 0.24303, 119:-0.18542, 118:-0.24798, 117: 0.02610, 116: 0.10141, 115: 0.23147, 114:-0.22186, 113:-0.14557,
                112: 0.14938, 111: 0.02620, 110:-0.15965, 109:-0.10540, 108:-0.24614, 107: 0.05207, 106: 0.11538, 105: 0.10656,
                104:-0.21857, 103:-0.06094, 102: 0.17258, 101:-0.21777, 100:-0.23422,  99: 0.27478,  98:-0.01167,  97: 0.24330,
                 96:-0.09069,  95: 0.22441,  94:-0.12155,  93:-0.21894,  92:-0.16293,  91: 0.25551,  90: 0.10128,  89:-0.25781,
                 88:-0.18992,  87: 0.17749,  86: 0.09930,  85: 0.09878,  84: 0.10104,  83: 0.14087,  82:-0.31503,  81:-0.06972,
                 80:-0.13438,  79:-0.13148,  78: 0.20404,  77:-0.13523,  76: 0.16212,  75: 0.10339,  74: 0.24832,  73: 0.23504,
                 72:-0.30862,  71: 0.12466,  70:-0.25351,  69:-0.14490,  68: 0.05983,  67: 0.09099,  66:-0.26707,  65:-0.26607,
                 64:-0.02206,  63:-0.04810,  62:-0.31116,  61: 0.05855,  60:-0.09662,  59: 0.19510,  58: 0.09838,  57:-0.09440,
                 56: 0.03775,  55:-0.06210,  54:-0.23713,  53:-0.17533,  52:-0.28908,  51:-0.23561,  50: 0.13214,  49:-0.11458,
                 48: 0.02174,  47: 0.02374,  46: 0.00640,  45:-0.10424,  44:-0.17249,  43: 0.05019,  42:-0.31258,  41:-0.13708,
                 40:-0.21224,  39:-0.17154,  38:-0.00858,  37: 0.13231,  36: 0.19833,  35: 0.09471,  34: 0.12859,  33:-0.11223,
                 32:-0.33873,  31: 0.16800,  30: 0.20667,  29:-0.09282,  28: 0.14502,  27: 0.08089,  26: 0.10296,  25:-0.09615,
                 24: 0.26856,  23: 0.16338,  22:-0.01135,  21: 0.24462,  20: 0.26169,  19:-0.12404,  18:-0.18086,  17:-0.06385,
                 16: 0.29992,  15: 0.11787,  14: 0.08325,  13:-0.30605,  12:-0.13381,  11: 0.20690,  10:-0.14131,   9:-0.08259,
                  8:-0.24747,   7: 0.19649,   6:-0.22189,   5: 0.24735,   4:-0.04999,   3: 0.21358,   2:-0.13862,   1:-0.03929
   211 |      | 200:-0.16762, 199: 0.08821, 198: 0.02632, 197: 0.15474, 196:-0.11662, 195: 0.24562, 194: 0.04870, 193:-0.27949,
                192:-0.02707, 191: 0.02066, 190: 0.21772, 189: 0.17909, 188: 0.12100, 187:-0.10335, 186: 0.06252, 185: 0.03157,
                184:-0.32981, 183: 0.06515, 182: 0.12472, 181: 0.21610, 180: 0.26075, 179:-0.17309, 178:-0.30954, 177: 0.15922,
                176:-0.09651, 175: 0.28264, 174:-0.17201, 173:-0.19629, 172:-0.15387, 171: 0.01307, 170: 0.25715, 169:-0.05605,
                168:-0.18086, 167:-0.00089, 166:-0.22966, 165: 0.03235, 164:-0.11312, 163: 0.13963, 162: 0.07542, 161: 0.15664,
                160:-0.15814, 159: 0.05160, 158: 0.02432, 157: 0.30234, 156: 0.29503, 155:-0.34499, 154:-0.02122, 153: 0.26767,
                152: 0.13846, 151:-0.13895, 150: 0.19282, 149: 0.12913, 148:-0.08673, 147: 0.20020, 146:-0.01712, 145: 0.16178,
                144: 0.14291, 143: 0.08230, 142: 0.23487, 141:-0.23661, 140:-0.16390, 139: 0.18053, 138:-0.04606, 137: 0.00413,
                136:-0.10725, 135: 0.08922, 134:-0.34290, 133: 0.08901, 132:-0.15780, 131: 0.00213, 130:-0.00402, 129:-0.01618,
                128:-0.15062, 127:-0.28970, 126: 0.00870, 125:-0.22229, 124:-0.19702, 123: 0.28148, 122:-0.21606, 121: 0.26296,
                120:-0.21314, 119: 0.22534, 118: 0.09899, 117: 0.05236, 116: 0.17592, 115:-0.20831, 114:-0.12159, 113:-0.01620,
                112: 0.11545, 111:-0.15289, 110: 0.05254, 109:-0.30395, 108: 0.29804, 107:-0.26006, 106:-0.02531, 105:-0.15274,
                104: 0.09576, 103:-0.00528, 102: 0.27975, 101: 0.18950, 100:-0.19195,  99:-0.06745,  98:-0.10047,  97:-0.03442,
                 96:-0.09996,  95: 0.20806,  94: 0.05168,  93: 0.06558,  92: 0.18849,  91: 0.16185,  90: 0.02401,  89: 0.24877,
                 88: 0.11833,  87:-0.14825,  86: 0.03150,  85:-0.10300,  84:-0.06903,  83: 0.17661,  82: 0.19037,  81:-0.27038,
                 80: 0.32557,  79: 0.00034,  78:-0.20834,  77: 0.27897,  76: 0.00345,  75: 0.13898,  74:-0.19559,  73:-0.21844,
                 72:-0.22066,  71:-0.19839,  70: 0.29918,  69:-0.01857,  68: 0.00352,  67:-0.05278,  66: 0.19403,  65: 0.26834,
                 64:-0.18912,  63:-0.02506,  62:-0.13421,  61: 0.25936,  60:-0.16915,  59:-0.26167,  58: 0.20194,  57: 0.15296,
                 56:-0.13469,  55:-0.03044,  54:-0.20039,  53: 0.07778,  52:-0.20896,  51:-0.27342,  50: 0.17113,  49:-0.17338,
                 48: 0.08925,  47: 0.25157,  46:-0.23620,  45:-0.20643,  44: 0.09442,  43:-0.05434,  42:-0.25911,  41: 0.21944,
                 40:-0.02850,  39:-0.17132,  38:-0.12733,  37: 0.25913,  36: 0.06529,  35:-0.17465,  34: 0.19883,  33: 0.17011,
                 32: 0.02648,  31:-0.14242,  30: 0.09287,  29: 0.19981,  28:-0.02615,  27: 0.06544,  26: 0.04951,  25: 0.14668,
                 24: 0.29423,  23: 0.15384,  22:-0.12615,  21:-0.23851,  20: 0.20307,  19:-0.19335,  18:-0.12010,  17:-0.04918,
                 16:-0.15033,  15:-0.06271,  14: 0.00273,  13: 0.12150,  12: 0.17911,  11: 0.17255,  10: 0.04504,   9:-0.17418,
                  8:-0.29117,   7: 0.25488,   6:-0.18756,   5: 0.07146,   4:-0.25571,   3:-0.28664,   2:-0.03645,   1: 0.11470
   212 |      | 200:-0.19587, 199:-0.04358, 198: 0.23474, 197: 0.12423, 196: 0.29218, 195: 0.09122, 194: 0.06472, 193: 0.12524,
                192:-0.28527, 191: 0.14467, 190:-0.01752, 189:-0.16229, 188:-0.28470, 187: 0.24849, 186:-0.10874, 185: 0.01277,
                184:-0.03817, 183:-0.26791, 182:-0.14104, 181:-0.14143, 180: 0.11040, 179: 0.03704, 178:-0.10664, 177: 0.06487,
                176: 0.13923, 175:-0.30424, 174: 0.11861, 173: 0.15156, 172:-0.03809, 171:-0.10530, 170:-0.20339, 169: 0.05613,
                168: 0.15644, 167:-0.25904, 166:-0.13220, 165: 0.17425, 164: 0.10039, 163: 0.24571, 162: 0.00680, 161: 0.11052,
                160: 0.08239, 159:-0.27667, 158: 0.24914, 157: 0.11920, 156: 0.29802, 155:-0.23589, 154:-0.19145, 153:-0.03600,
                152:-0.12956, 151:-0.00334, 150: 0.12434, 149: 0.29625, 148:-0.30453, 147:-0.27585, 146: 0.05992, 145: 0.16160,
                144:-0.29723, 143:-0.13495, 142:-0.00301, 141: 0.00991, 140: 0.07988, 139: 0.08999, 138:-0.25830, 137:-0.03337,
                136: 0.13538, 135:-0.05614, 134:-0.20764, 133:-0.05751, 132:-0.15658, 131: 0.08162, 130:-0.21620, 129: 0.22919,
                128: 0.16476, 127:-0.26781, 126: 0.06118, 125: 0.13164, 124:-0.12145, 123: 0.16828, 122:-0.18695, 121: 0.05984,
                120:-0.16061, 119: 0.21240, 118: 0.06276, 117:-0.14345, 116: 0.26288, 115:-0.17332, 114:-0.30798, 113: 0.25322,
                112:-0.04193, 111: 0.01403, 110:-0.03071, 109:-0.23591, 108:-0.20932, 107: 0.02685, 106: 0.02400, 105: 0.20472,
                104: 0.25577, 103: 0.15230, 102:-0.12611, 101:-0.22797, 100: 0.00494,  99:-0.06281,  98:-0.28155,  97:-0.13121,
                 96:-0.06496,  95: 0.07630,  94:-0.28769,  93: 0.15488,  92:-0.05547,  91:-0.15976,  90:-0.08267,  89: 0.06786,
                 88:-0.22945,  87: 0.29043,  86: 0.23907,  85:-0.30975,  84:-0.18684,  83: 0.22261,  82: 0.24277,  81: 0.06405,
                 80:-0.06015,  79:-0.05108,  78: 0.17096,  77: 0.00515,  76: 0.25250,  75:-0.06815,  74:-0.09688,  73: 0.20698,
                 72:-0.24362,  71: 0.08132,  70: 0.29719,  69: 0.10800,  68: 0.30250,  67:-0.26284,  66: 0.25450,  65:-0.01699,
                 64: 0.09736,  63: 0.28206,  62:-0.26289,  61:-0.28021,  60:-0.18197,  59: 0.04155,  58: 0.09024,  57:-0.16002,
                 56: 0.01800,  55: 0.04877,  54:-0.14659,  53: 0.12307,  52:-0.05628,  51:-0.17850,  50:-0.07421,  49: 0.18906,
                 48: 0.10389,  47:-0.20801,  46:-0.12409,  45: 0.06223,  44: 0.02295,  43: 0.11066,  42:-0.10606,  41: 0.10078,
                 40:-0.13885,  39:-0.05831,  38:-0.09740,  37:-0.14189,  36:-0.02929,  35:-0.11015,  34: 0.12181,  33:-0.23096,
                 32:-0.17056,  31: 0.21862,  30:-0.22593,  29:-0.02586,  28:-0.00067,  27: 0.19958,  26: 0.11190,  25:-0.27237,
                 24:-0.07351,  23: 0.27096,  22: 0.12092,  21: 0.15776,  20:-0.19647,  19:-0.21872,  18: 0.04655,  17: 0.18726,
                 16:-0.08010,  15: 0.21478,  14:-0.06791,  13: 0.18028,  12: 0.03314,  11: 0.19615,  10:-0.00913,   9: 0.18139,
                  8:-0.15495,   7: 0.21096,   6:-0.25414,   5: 0.11757,   4:-0.21685,   3: 0.17632,   2: 0.19549,   1:-0.05870
   213 |      | 200: 0.18356, 199: 0.22615, 198:-0.15689, 197: 0.09168, 196:-0.06502, 195:-0.18487, 194:-0.22363, 193:-0.03777,
                192:-0.29250, 191: 0.18551, 190: 0.20073, 189:-0.31869, 188: 0.04587, 187:-0.06631, 186:-0.05731, 185:-0.14339,
                184: 0.27240, 183:-0.07659, 182: 0.33887, 181: 0.11108, 180: 0.20157, 179: 0.11397, 178: 0.26759, 177: 0.08363,
                176: 0.07145, 175: 0.04150, 174: 0.12561, 173: 0.05844, 172:-0.04016, 171:-0.11670, 170:-0.07453, 169:-0.05180,
                168:-0.22184, 167: 0.00894, 166:-0.17007, 165: 0.03158, 164: 0.30988, 163:-0.11694, 162: 0.21845, 161: 0.35348,
                160:-0.17457, 159: 0.03366, 158:-0.18610, 157: 0.05738, 156: 0.12250, 155: 0.36434, 154:-0.21130, 153: 0.16308,
                152: 0.30648, 151:-0.32719, 150:-0.04537, 149: 0.17693, 148: 0.25801, 147:-0.11399, 146:-0.00004, 145:-0.00139,
                144: 0.36402, 143:-0.10196, 142:-0.17476, 141:-0.13621, 140:-0.00283, 139: 0.09989, 138: 0.27474, 137:-0.02219,
                136:-0.20944, 135:-0.45486, 134:-0.09403, 133:-0.16151, 132: 0.02700, 131:-0.06439, 130:-0.22155, 129: 0.16100,
                128: 0.04958, 127:-0.04107, 126:-0.12036, 125: 0.11666, 124: 0.27023, 123: 0.00592, 122:-0.10023, 121: 0.21015,
                120: 0.14494, 119: 0.27993, 118: 0.12701, 117: 0.01756, 116:-0.29336, 115:-0.21125, 114:-0.16098, 113:-0.04221,
                112: 0.12121, 111:-0.14648, 110: 0.11479, 109:-0.21494, 108:-0.26166, 107:-0.01428, 106: 0.10288, 105: 0.01903,
                104: 0.02341, 103: 0.15962, 102: 0.03979, 101:-0.12473, 100: 0.16378,  99: 0.26957,  98: 0.30163,  97:-0.10901,
                 96:-0.00334,  95:-0.12775,  94:-0.27613,  93:-0.16355,  92:-0.38217,  91:-0.15112,  90:-0.18017,  89: 0.13997,
                 88:-0.23453,  87: 0.15203,  86:-0.20449,  85: 0.11065,  84:-0.31273,  83: 0.01136,  82: 0.28044,  81: 0.19700,
                 80:-0.39219,  79: 0.00996,  78: 0.13438,  77:-0.20224,  76:-0.23984,  75:-0.25414,  74: 0.19916,  73: 0.18040,
                 72: 0.35227,  71:-0.08330,  70:-0.30689,  69: 0.08670,  68:-0.06502,  67: 0.17538,  66:-0.16955,  65: 0.10659,
                 64:-0.08893,  63:-0.20568,  62: 0.62861,  61:-0.08786,  60:-0.01984,  59:-0.20181,  58:-0.17545,  57: 0.31276,
                 56:-0.27383,  55:-0.21288,  54: 0.01790,  53:-0.18956,  52: 0.26283,  51:-0.05895,  50: 0.18233,  49: 0.20370,
                 48: 0.10855,  47: 0.01033,  46:-0.16233,  45: 0.22729,  44: 0.08883,  43: 0.11977,  42: 0.43595,  41: 0.12978,
                 40:-0.07387,  39: 0.23950,  38:-0.01906,  37: 0.22153,  36: 0.12224,  35:-0.05959,  34: 0.12393,  33:-0.20345,
                 32: 0.24275,  31: 0.25773,  30: 0.13336,  29:-0.14102,  28: 0.18044,  27: 0.07091,  26:-0.07990,  25: 0.23967,
                 24:-0.31072,  23: 0.20097,  22:-0.14804,  21:-0.22743,  20:-0.18204,  19: 0.19466,  18:-0.26461,  17:-0.26269,
                 16:-0.30583,  15:-0.14345,  14:-0.19860,  13:-0.15149,  12:-0.27347,  11: 0.21461,  10: 0.27266,   9: 0.04733,
                  8: 0.13857,   7:-0.13467,   6:-0.07228,   5: 0.02986,   4: 0.21470,   3:-0.25543,   2: 0.06238,   1: 0.04273
   214 |      | 200:-0.00805, 199:-0.25105, 198: 0.02887, 197:-0.16832, 196: 0.10589, 195: 0.05862, 194:-0.12169, 193:-0.02184,
                192: 0.01147, 191:-0.05489, 190: 0.00229, 189: 0.09391, 188:-0.09035, 187: 0.29891, 186: 0.20992, 185: 0.16889,
                184:-0.36658, 183: 0.18400, 182: 0.00146, 181: 0.22630, 180: 0.11688, 179:-0.09303, 178: 0.03560, 177:-0.24018,
                176: 0.23299, 175:-0.19929, 174: 0.37929, 173: 0.19738, 172: 0.12756, 171: 0.01761, 170:-0.03165, 169: 0.28965,
                168: 0.06328, 167:-0.23652, 166:-0.29079, 165:-0.08373, 164:-0.17936, 163:-0.08657, 162: 0.27072, 161: 0.12739,
                160: 0.16071, 159: 0.15710, 158:-0.13865, 157:-0.08014, 156: 0.36074, 155:-0.79078, 154: 0.17383, 153: 0.20412,
                152: 0.22870, 151: 0.10618, 150: 0.19167, 149: 0.10147, 148: 0.03146, 147:-0.01850, 146: 0.10466, 145: 0.09626,
                144:-0.13897, 143: 0.05851, 142:-0.10274, 141:-0.05714, 140:-0.12787, 139: 0.09941, 138:-0.30305, 137:-0.16839,
                136: 0.21492, 135: 0.11185, 134:-0.25110, 133:-0.25719, 132:-0.12254, 131:-0.40134, 130:-0.21888, 129:-0.28230,
                128:-0.18506, 127:-0.20068, 126:-0.00462, 125: 0.14076, 124:-0.04274, 123:-0.15254, 122: 0.21493, 121:-0.03913,
                120: 0.01752, 119:-0.11929, 118:-0.24006, 117:-0.11030, 116: 0.35811, 115: 0.23971, 114: 0.12630, 113:-0.25802,
                112:-0.24625, 111: 0.43261, 110:-0.02936, 109: 0.03470, 108: 0.15063, 107: 0.08920, 106: 0.12737, 105:-0.18403,
                104: 0.23528, 103:-0.18874, 102: 0.04084, 101:-0.38145, 100: 0.10857,  99:-0.10194,  98:-0.26520,  97: 0.24465,
                 96:-0.20367,  95: 0.08579,  94: 0.09538,  93:-0.21111,  92: 0.15544,  91: 0.08014,  90:-0.02427,  89:-0.22075,
                 88: 0.37198,  87: 0.16382,  86: 0.08740,  85: 0.01482,  84: 0.00287,  83:-0.16527,  82:-0.48868,  81:-0.06640,
                 80:-0.05029,  79:-0.03607,  78:-0.06707,  77: 0.22144,  76: 0.29376,  75: 0.06147,  74: 0.21251,  73: 0.07856,
                 72:-0.09545,  71:-0.00479,  70: 0.08523,  69:-0.01727,  68: 0.08084,  67: 0.27946,  66:-0.25526,  65:-0.10938,
                 64:-0.16957,  63: 0.19357,  62:-0.82943,  61: 0.18661,  60:-0.07435,  59: 0.18343,  58: 0.17137,  57: 0.18128,
                 56:-0.02691,  55: 0.16124,  54: 0.10103,  53: 0.12474,  52: 0.02519,  51: 0.04129,  50:-0.01513,  49: 0.30866,
                 48:-0.09652,  47: 0.20954,  46: 0.02540,  45:-0.23180,  44:-0.08531,  43: 0.19418,  42:-0.32702,  41: 0.17909,
                 40: 0.24187,  39:-0.23052,  38:-0.20598,  37:-0.02953,  36: 0.33198,  35: 0.03911,  34: 0.01059,  33:-0.24113,
                 32:-0.38862,  31:-0.02484,  30: 0.09006,  29:-0.05894,  28: 0.15425,  27: 0.24868,  26:-0.16659,  25:-0.21728,
                 24:-0.10517,  23: 0.28109,  22: 0.01761,  21: 0.11419,  20: 0.00195,  19:-0.07136,  18: 0.03362,  17: 0.07127,
                 16: 0.15610,  15:-0.20493,  14:-0.02382,  13:-0.11569,  12: 0.23924,  11:-0.12094,  10:-0.17947,   9: 0.06319,
                  8:-0.08317,   7: 0.00743,   6:-0.19022,   5:-0.12063,   4: 0.20839,   3: 0.10572,   2: 0.04346,   1: 0.27364
   215 |      | 200:-0.12953, 199:-0.25338, 198:-0.06956, 197:-0.32097, 196:-0.19270, 195: 0.00191, 194:-0.28157, 193: 0.30379,
                192:-0.05696, 191: 0.10478, 190: 0.02182, 189: 0.09721, 188:-0.09101, 187: 0.26653, 186:-0.31580, 185: 0.01031,
                184: 0.06755, 183: 0.01473, 182: 0.01354, 181: 0.18102, 180: 0.21099, 179:-0.23035, 178:-0.11901, 177:-0.09430,
                176:-0.20493, 175: 0.13758, 174:-0.25159, 173: 0.25422, 172:-0.10767, 171: 0.31447, 170: 0.04559, 169: 0.11512,
                168:-0.24517, 167: 0.26341, 166: 0.12253, 165:-0.14703, 164: 0.03905, 163: 0.12650, 162:-0.17244, 161: 0.28928,
                160:-0.02518, 159: 0.10626, 158: 0.12472, 157: 0.12690, 156: 0.00606, 155: 0.24766, 154:-0.07914, 153:-0.18890,
                152:-0.15487, 151: 0.15596, 150: 0.27940, 149:-0.25503, 148: 0.31608, 147:-0.14721, 146:-0.04093, 145:-0.21135,
                144:-0.25269, 143: 0.04670, 142:-0.22361, 141:-0.13340, 140: 0.02629, 139: 0.13307, 138:-0.24731, 137: 0.03908,
                136: 0.08032, 135: 0.07759, 134: 0.29096, 133:-0.17367, 132: 0.03450, 131:-0.13865, 130:-0.23316, 129:-0.28592,
                128: 0.16995, 127: 0.21390, 126: 0.13032, 125:-0.01163, 124: 0.02051, 123:-0.24068, 122: 0.05020, 121: 0.13788,
                120: 0.29394, 119: 0.11310, 118: 0.19086, 117: 0.25430, 116: 0.17933, 115:-0.16428, 114:-0.19652, 113: 0.30769,
                112: 0.25120, 111:-0.15439, 110:-0.12097, 109:-0.03772, 108:-0.30145, 107:-0.11284, 106:-0.27709, 105: 0.16885,
                104:-0.26460, 103: 0.24537, 102: 0.22730, 101: 0.12820, 100: 0.29540,  99:-0.22647,  98: 0.12909,  97: 0.14840,
                 96: 0.33280,  95:-0.05205,  94:-0.15248,  93:-0.01502,  92: 0.02643,  91: 0.17246,  90:-0.14718,  89: 0.05476,
                 88:-0.05307,  87:-0.29405,  86:-0.02586,  85:-0.00785,  84:-0.13808,  83: 0.11719,  82:-0.03109,  81:-0.14722,
                 80:-0.34118,  79: 0.11029,  78: 0.04124,  77:-0.26273,  76:-0.28306,  75:-0.02382,  74: 0.24333,  73:-0.19274,
                 72:-0.01743,  71: 0.17098,  70: 0.21180,  69:-0.08779,  68: 0.27435,  67:-0.01543,  66:-0.15804,  65: 0.24784,
                 64:-0.29562,  63:-0.03654,  62: 0.09538,  61: 0.06986,  60:-0.14089,  59: 0.10888,  58:-0.15521,  57: 0.23544,
                 56: 0.14411,  55: 0.06789,  54:-0.12770,  53:-0.25116,  52:-0.03655,  51: 0.11012,  50:-0.16661,  49:-0.08171,
                 48:-0.14874,  47: 0.17026,  46: 0.01615,  45:-0.09044,  44:-0.13853,  43:-0.14562,  42: 0.15819,  41: 0.14288,
                 40:-0.17676,  39:-0.01308,  38:-0.21417,  37:-0.19127,  36: 0.27729,  35:-0.14801,  34:-0.19365,  33:-0.29062,
                 32: 0.21627,  31: 0.10957,  30: 0.12341,  29:-0.25349,  28:-0.14890,  27: 0.17955,  26:-0.30347,  25: 0.30520,
                 24: 0.00883,  23:-0.13902,  22:-0.20056,  21:-0.28378,  20: 0.26371,  19:-0.12938,  18:-0.03686,  17:-0.12259,
                 16:-0.35167,  15: 0.26522,  14: 0.14553,  13:-0.03070,  12:-0.15167,  11:-0.14164,  10:-0.19629,   9: 0.01700,
                  8: 0.13845,   7:-0.15503,   6: 0.11050,   5: 0.14357,   4: 0.05167,   3: 0.21637,   2: 0.11988,   1:-0.07139
   216 |      | 200:-0.00743, 199: 0.02060, 198: 0.10916, 197:-0.08380, 196: 0.06917, 195: 0.14303, 194: 0.23526, 193: 0.23793,
                192: 0.17277, 191: 0.25436, 190: 0.13800, 189:-0.18840, 188:-0.13342, 187:-0.14662, 186:-0.18379, 185:-0.08215,
                184: 0.20469, 183: 0.00666, 182:-0.03173, 181:-0.17721, 180: 0.09302, 179:-0.23334, 178: 0.23789, 177: 0.25552,
                176: 0.22870, 175: 0.08088, 174: 0.07974, 173: 0.08457, 172:-0.10191, 171: 0.22821, 170:-0.28027, 169: 0.13159,
                168:-0.02570, 167: 0.14591, 166: 0.29130, 165:-0.22906, 164:-0.13255, 163: 0.24875, 162:-0.24621, 161:-0.27930,
                160: 0.19355, 159: 0.28580, 158:-0.18402, 157:-0.15440, 156:-0.07508, 155:-0.35067, 154:-0.03680, 153:-0.19385,
                152: 0.22866, 151:-0.24649, 150:-0.05854, 149: 0.04759, 148:-0.31017, 147:-0.10019, 146:-0.00493, 145: 0.25923,
                144: 0.20117, 143:-0.28431, 142:-0.00183, 141:-0.08125, 140:-0.28796, 139:-0.01221, 138: 0.25021, 137: 0.05903,
                136:-0.12920, 135: 0.42371, 134:-0.00731, 133: 0.03472, 132: 0.16019, 131:-0.02520, 130: 0.15022, 129: 0.06820,
                128: 0.13353, 127: 0.21609, 126: 0.25449, 125: 0.21437, 124:-0.11247, 123:-0.10846, 122:-0.20808, 121:-0.15951,
                120:-0.16700, 119:-0.06718, 118: 0.19383, 117:-0.10550, 116: 0.23368, 115:-0.07963, 114:-0.23808, 113: 0.04240,
                112:-0.18583, 111: 0.12932, 110: 0.27011, 109:-0.10623, 108:-0.23627, 107: 0.29159, 106: 0.21671, 105:-0.17961,
                104: 0.29658, 103: 0.01936, 102: 0.25545, 101: 0.06568, 100:-0.10462,  99: 0.00465,  98:-0.12760,  97:-0.27108,
                 96:-0.18539,  95:-0.15888,  94: 0.28325,  93: 0.16802,  92: 0.02212,  91:-0.18530,  90: 0.29309,  89: 0.10388,
                 88: 0.10566,  87: 0.24256,  86:-0.25601,  85:-0.16358,  84:-0.17746,  83:-0.22003,  82:-0.38572,  81:-0.10571,
                 80: 0.20374,  79: 0.27085,  78: 0.20378,  77: 0.18448,  76: 0.22535,  75: 0.24690,  74: 0.25372,  73: 0.16190,
                 72:-0.13318,  71: 0.20895,  70:-0.01820,  69: 0.19721,  68:-0.12838,  67: 0.23261,  66: 0.16764,  65: 0.14378,
                 64: 0.27028,  63: 0.18221,  62:-0.34985,  61:-0.06354,  60: 0.28030,  59:-0.03642,  58:-0.29973,  57:-0.09791,
                 56:-0.13835,  55:-0.17007,  54: 0.11142,  53:-0.06561,  52:-0.20201,  51: 0.08619,  50: 0.22910,  49: 0.29754,
                 48: 0.15364,  47: 0.12174,  46: 0.08751,  45: 0.05160,  44: 0.05740,  43: 0.15864,  42:-0.33303,  41: 0.27814,
                 40:-0.02853,  39: 0.09903,  38: 0.14350,  37: 0.11214,  36: 0.02090,  35: 0.11237,  34:-0.10447,  33:-0.04272,
                 32:-0.14638,  31: 0.04534,  30: 0.10924,  29:-0.10336,  28:-0.12838,  27: 0.24122,  26: 0.07289,  25: 0.01073,
                 24: 0.29576,  23:-0.08531,  22: 0.11409,  21:-0.25933,  20: 0.31584,  19: 0.19535,  18:-0.29256,  17: 0.09197,
                 16: 0.15482,  15: 0.09528,  14:-0.24358,  13:-0.29479,  12:-0.04747,  11:-0.02397,  10:-0.30614,   9: 0.16420,
                  8:-0.21304,   7: 0.18907,   6: 0.00362,   5: 0.08992,   4:-0.06108,   3: 0.20518,   2:-0.21781,   1: 0.17626
   217 |      | 200: 0.25674, 199: 0.26400, 198: 0.26508, 197: 0.12893, 196: 0.01820, 195:-0.01321, 194: 0.02928, 193: 0.17405,
                192:-0.07118, 191: 0.06544, 190: 0.13163, 189:-0.18621, 188: 0.07612, 187:-0.07529, 186: 0.12018, 185:-0.06724,
                184: 0.02287, 183: 0.16684, 182: 0.15746, 181:-0.28634, 180: 0.20723, 179: 0.07966, 178:-0.15819, 177: 0.09281,
                176:-0.22752, 175: 0.27269, 174:-0.27233, 173: 0.27997, 172:-0.22989, 171: 0.15365, 170: 0.07675, 169:-0.27788,
                168: 0.11957, 167: 0.04559, 166: 0.14337, 165:-0.14518, 164:-0.28524, 163:-0.12021, 162:-0.26615, 161:-0.05739,
                160: 0.25260, 159: 0.18689, 158: 0.06012, 157: 0.04167, 156:-0.18169, 155:-0.16481, 154: 0.26308, 153: 0.14797,
                152:-0.25003, 151: 0.13923, 150: 0.16394, 149: 0.26605, 148:-0.10392, 147:-0.28929, 146: 0.05602, 145:-0.01062,
                144: 0.27986, 143: 0.07830, 142:-0.03836, 141:-0.22511, 140:-0.05683, 139:-0.26896, 138:-0.21592, 137:-0.21027,
                136: 0.08084, 135: 0.24806, 134:-0.09204, 133: 0.10508, 132:-0.19431, 131:-0.06421, 130:-0.23056, 129:-0.23793,
                128:-0.14185, 127: 0.12553, 126: 0.11213, 125:-0.03396, 124:-0.28338, 123: 0.07534, 122:-0.17643, 121:-0.23313,
                120:-0.09857, 119: 0.27173, 118:-0.26039, 117: 0.11583, 116: 0.29752, 115: 0.09936, 114:-0.20836, 113: 0.27340,
                112:-0.13737, 111: 0.06097, 110:-0.24790, 109: 0.12246, 108: 0.08876, 107:-0.15330, 106: 0.20487, 105:-0.13403,
                104:-0.21437, 103:-0.16002, 102: 0.28425, 101:-0.12096, 100: 0.11903,  99:-0.25669,  98:-0.04994,  97: 0.27603,
                 96: 0.14573,  95:-0.23777,  94:-0.05163,  93: 0.19196,  92: 0.13856,  91: 0.08098,  90: 0.26174,  89:-0.26711,
                 88: 0.06420,  87:-0.29050,  86: 0.15384,  85: 0.04094,  84: 0.10761,  83: 0.24157,  82: 0.01054,  81: 0.25908,
                 80: 0.01066,  79: 0.08827,  78: 0.11264,  77:-0.21013,  76: 0.21795,  75: 0.03943,  74:-0.05082,  73:-0.29005,
                 72: 0.16164,  71:-0.06040,  70:-0.10147,  69: 0.01302,  68:-0.02447,  67: 0.16032,  66:-0.02192,  65:-0.14579,
                 64: 0.21345,  63: 0.23726,  62:-0.32738,  61: 0.03956,  60: 0.01986,  59:-0.29694,  58: 0.07026,  57:-0.24297,
                 56:-0.30392,  55:-0.06347,  54: 0.10987,  53: 0.10780,  52:-0.13769,  51:-0.15956,  50: 0.09245,  49: 0.17469,
                 48: 0.24647,  47:-0.09926,  46: 0.25018,  45: 0.17233,  44: 0.24469,  43:-0.07936,  42: 0.13087,  41: 0.12274,
                 40: 0.14451,  39:-0.23466,  38:-0.16669,  37:-0.18278,  36: 0.22251,  35: 0.13031,  34:-0.03769,  33: 0.13338,
                 32: 0.04445,  31:-0.01667,  30:-0.13741,  29:-0.22296,  28: 0.00819,  27: 0.25656,  26:-0.16984,  25: 0.01758,
                 24:-0.11862,  23: 0.24453,  22:-0.19951,  21: 0.03661,  20:-0.20658,  19: 0.21934,  18:-0.08425,  17:-0.27566,
                 16:-0.15262,  15:-0.13519,  14: 0.18967,  13:-0.24450,  12: 0.08849,  11: 0.06511,  10: 0.18803,   9:-0.06539,
                  8: 0.13252,   7:-0.26580,   6: 0.05882,   5: 0.06064,   4: 0.14994,   3:-0.27603,   2:-0.09887,   1:-0.08752
   218 |      | 200: 0.16603, 199:-0.05264, 198:-0.25286, 197: 0.08566, 196: 0.11615, 195: 0.10468, 194: 0.19261, 193: 0.02163,
                192: 0.20058, 191:-0.02676, 190: 0.00798, 189: 0.20210, 188: 0.13313, 187: 0.16061, 186: 0.28155, 185:-0.20393,
                184:-0.01884, 183:-0.31742, 182: 0.06297, 181:-0.18516, 180: 0.17745, 179:-0.17332, 178: 0.25460, 177: 0.25065,
                176: 0.21775, 175: 0.05756, 174: 0.14831, 173: 0.18756, 172: 0.25210, 171: 0.23891, 170:-0.10528, 169: 0.04307,
                168:-0.07045, 167:-0.03327, 166:-0.23885, 165:-0.22560, 164:-0.33616, 163: 0.27620, 162: 0.14609, 161: 0.12933,
                160:-0.08201, 159:-0.04419, 158: 0.00440, 157:-0.17442, 156:-0.07642, 155:-0.33708, 154:-0.20110, 153: 0.17216,
                152:-0.04716, 151: 0.28954, 150: 0.30433, 149:-0.12112, 148:-0.32726, 147: 0.28699, 146:-0.19009, 145: 0.23869,
                144:-0.03934, 143: 0.18748, 142: 0.08468, 141: 0.05643, 140: 0.19738, 139: 0.24032, 138: 0.26987, 137:-0.10011,
                136:-0.05846, 135:-0.06673, 134:-0.19569, 133:-0.10955, 132:-0.32184, 131:-0.39227, 130:-0.17624, 129:-0.11856,
                128: 0.04661, 127: 0.08273, 126: 0.04784, 125: 0.09106, 124:-0.20785, 123: 0.12755, 122: 0.04676, 121: 0.07451,
                120:-0.00623, 119:-0.06066, 118: 0.25832, 117: 0.05864, 116: 0.02509, 115:-0.20518, 114:-0.09960, 113: 0.18067,
                112: 0.14885, 111: 0.36140, 110:-0.06541, 109: 0.11548, 108: 0.25239, 107:-0.00896, 106:-0.29251, 105:-0.23220,
                104: 0.06301, 103:-0.05530, 102: 0.06180, 101:-0.05532, 100: 0.05129,  99: 0.06771,  98: 0.17472,  97:-0.20291,
                 96:-0.25362,  95:-0.06510,  94: 0.20867,  93: 0.00141,  92: 0.34078,  91: 0.00826,  90:-0.25275,  89:-0.01961,
                 88: 0.29681,  87:-0.21790,  86:-0.21025,  85:-0.20137,  84:-0.17061,  83:-0.05078,  82:-0.28697,  81:-0.35734,
                 80: 0.00390,  79: 0.04849,  78: 0.18751,  77:-0.14900,  76: 0.27161,  75: 0.33395,  74:-0.14540,  73:-0.01374,
                 72:-0.15660,  71: 0.23480,  70: 0.28199,  69:-0.25156,  68:-0.05931,  67: 0.25276,  66:-0.24673,  65: 0.14919,
                 64:-0.22917,  63: 0.30165,  62:-0.47086,  61:-0.25568,  60:-0.01308,  59:-0.13166,  58:-0.01174,  57:-0.23040,
                 56:-0.10595,  55: 0.18078,  54:-0.04257,  53:-0.04189,  52:-0.29800,  51: 0.04565,  50: 0.01385,  49: 0.00934,
                 48:-0.07204,  47:-0.11540,  46: 0.04404,  45:-0.15347,  44:-0.10059,  43: 0.35930,  42:-0.15732,  41: 0.11926,
                 40: 0.14700,  39: 0.00794,  38: 0.13425,  37:-0.23379,  36:-0.03923,  35: 0.31519,  34: 0.13907,  33:-0.01158,
                 32: 0.13902,  31: 0.10862,  30:-0.05949,  29:-0.08039,  28:-0.14864,  27:-0.21717,  26:-0.04123,  25: 0.03404,
                 24: 0.16361,  23: 0.24082,  22:-0.38853,  21: 0.10730,  20: 0.00325,  19: 0.02749,  18:-0.24125,  17: 0.11317,
                 16: 0.39411,  15: 0.11915,  14: 0.18009,  13:-0.24947,  12: 0.15427,  11: 0.01965,  10: 0.17932,   9:-0.06286,
                  8:-0.26791,   7: 0.08940,   6: 0.03908,   5:-0.03114,   4: 0.02092,   3:-0.11589,   2:-0.28740,   1:-0.03066
   219 |      | 200: 0.02770, 199: 0.03986, 198: 0.03384, 197: 0.04433, 196: 0.28997, 195:-0.19698, 194:-0.24724, 193: 0.16498,
                192:-0.20461, 191: 0.14770, 190:-0.23203, 189: 0.14488, 188: 0.20256, 187: 0.23911, 186: 0.04213, 185: 0.12424,
                184: 0.11651, 183: 0.10943, 182:-0.12162, 181:-0.12927, 180: 0.04746, 179: 0.23531, 178:-0.04207, 177:-0.15659,
                176:-0.00880, 175: 0.28884, 174: 0.18234, 173: 0.13660, 172: 0.29649, 171:-0.27017, 170: 0.29064, 169:-0.00188,
                168: 0.09840, 167: 0.04116, 166: 0.29112, 165: 0.12122, 164: 0.04918, 163:-0.23884, 162: 0.02200, 161: 0.13224,
                160: 0.21800, 159: 0.14627, 158:-0.03265, 157: 0.17455, 156: 0.16123, 155: 0.04061, 154:-0.08013, 153:-0.05254,
                152: 0.10604, 151: 0.18944, 150: 0.13330, 149:-0.12017, 148: 0.01435, 147:-0.18751, 146: 0.01032, 145: 0.33157,
                144:-0.25078, 143:-0.15345, 142: 0.14556, 141:-0.17219, 140:-0.06778, 139: 0.11185, 138: 0.03911, 137:-0.21225,
                136:-0.12100, 135: 0.19932, 134: 0.10374, 133: 0.23494, 132: 0.08096, 131:-0.23619, 130: 0.15357, 129: 0.00228,
                128:-0.24679, 127:-0.22621, 126:-0.10451, 125: 0.09721, 124:-0.19813, 123: 0.10650, 122:-0.19849, 121: 0.22012,
                120:-0.09480, 119: 0.15022, 118:-0.18488, 117: 0.28539, 116: 0.35544, 115: 0.14561, 114: 0.25487, 113:-0.29612,
                112: 0.22086, 111: 0.13520, 110:-0.17002, 109:-0.10886, 108:-0.06824, 107: 0.22223, 106:-0.03804, 105: 0.02391,
                104: 0.00057, 103:-0.14888, 102: 0.02756, 101:-0.28944, 100: 0.08236,  99:-0.18690,  98: 0.05245,  97: 0.11618,
                 96:-0.20302,  95: 0.27316,  94:-0.05168,  93: 0.05101,  92: 0.05100,  91: 0.08225,  90:-0.03542,  89: 0.22276,
                 88:-0.02257,  87: 0.12621,  86: 0.24493,  85:-0.13674,  84:-0.05396,  83: 0.17695,  82:-0.13662,  81:-0.17847,
                 80: 0.03495,  79: 0.08441,  78: 0.11036,  77: 0.19053,  76:-0.00573,  75:-0.12765,  74:-0.12691,  73: 0.24189,
                 72:-0.06090,  71: 0.22161,  70: 0.29418,  69:-0.17237,  68: 0.29553,  67: 0.10499,  66: 0.19069,  65:-0.06942,
                 64:-0.01122,  63:-0.13437,  62:-0.09087,  61: 0.30782,  60: 0.22649,  59:-0.08516,  58: 0.19037,  57:-0.23168,
                 56: 0.31064,  55: 0.19786,  54:-0.01994,  53:-0.09059,  52:-0.01773,  51: 0.21943,  50: 0.10859,  49: 0.31992,
                 48: 0.07494,  47:-0.08125,  46: 0.12751,  45:-0.27396,  44: 0.06901,  43:-0.20547,  42: 0.06949,  41:-0.25297,
                 40: 0.22647,  39: 0.19575,  38:-0.17036,  37: 0.21822,  36: 0.00205,  35:-0.19748,  34:-0.20996,  33: 0.25046,
                 32:-0.15269,  31:-0.34319,  30: 0.18487,  29:-0.17941,  28:-0.02114,  27: 0.18750,  26:-0.12180,  25:-0.02746,
                 24: 0.02753,  23: 0.18337,  22: 0.08178,  21: 0.28432,  20: 0.11619,  19:-0.00397,  18: 0.27547,  17:-0.17145,
                 16: 0.32629,  15: 0.11330,  14:-0.20585,  13:-0.08035,  12: 0.20663,  11:-0.22936,  10:-0.01325,   9: 0.09707,
                  8:-0.33375,   7: 0.15693,   6: 0.03560,   5:-0.05138,   4: 0.20081,   3: 0.12571,   2:-0.07970,   1:-0.18005
   220 |      | 200:-0.19648, 199:-0.10019, 198:-0.12788, 197:-0.35495, 196: 0.00749, 195: 0.11701, 194:-0.03536, 193:-0.12913,
                192: 0.01468, 191:-0.07572, 190: 0.35173, 189:-0.36180, 188:-0.03983, 187:-0.24438, 186: 0.19797, 185:-0.27547,
                184:-0.05320, 183:-0.07141, 182: 0.32350, 181:-0.03601, 180: 0.23926, 179: 0.06035, 178:-0.02579, 177: 0.06672,
                176:-0.27821, 175: 0.21381, 174:-0.07238, 173: 0.23277, 172:-0.12104, 171: 0.11301, 170: 0.15500, 169: 0.04174,
                168: 0.29373, 167:-0.28856, 166: 0.05984, 165:-0.02272, 164: 0.23759, 163:-0.29748, 162: 0.09387, 161:-0.03255,
                160:-0.03235, 159: 0.08973, 158:-0.04418, 157: 0.14343, 156: 0.02535, 155: 0.12849, 154: 0.29113, 153:-0.25902,
                152: 0.11742, 151: 0.20554, 150:-0.00181, 149: 0.04448, 148: 0.10495, 147: 0.26021, 146:-0.17186, 145: 0.10793,
                144: 0.27008, 143: 0.12062, 142: 0.08533, 141:-0.27090, 140:-0.14139, 139:-0.02042, 138: 0.19701, 137:-0.22024,
                136:-0.04804, 135:-0.24848, 134: 0.19923, 133:-0.10284, 132:-0.00545, 131: 0.08546, 130: 0.08994, 129: 0.26761,
                128:-0.28757, 127:-0.19959, 126: 0.09805, 125: 0.22640, 124:-0.06337, 123: 0.10137, 122: 0.18903, 121:-0.27764,
                120: 0.13360, 119: 0.00646, 118: 0.07576, 117:-0.11995, 116:-0.15603, 115: 0.16966, 114:-0.21450, 113:-0.04983,
                112: 0.09568, 111: 0.09201, 110:-0.03261, 109: 0.22919, 108:-0.19377, 107:-0.19487, 106:-0.25709, 105: 0.20548,
                104: 0.00982, 103: 0.10964, 102:-0.28489, 101:-0.18227, 100:-0.26406,  99: 0.21288,  98:-0.25330,  97:-0.26203,
                 96: 0.37109,  95: 0.12799,  94: 0.26166,  93:-0.10600,  92:-0.04921,  91: 0.11643,  90:-0.03297,  89:-0.14792,
                 88:-0.25008,  87:-0.33426,  86:-0.04010,  85: 0.13801,  84: 0.19035,  83: 0.08334,  82: 0.33531,  81: 0.02996,
                 80:-0.10978,  79:-0.06889,  78:-0.13344,  77: 0.12611,  76: 0.05725,  75:-0.23253,  74: 0.09672,  73:-0.13676,
                 72: 0.29558,  71: 0.11272,  70:-0.07051,  69: 0.23258,  68: 0.08035,  67:-0.11513,  66:-0.22771,  65: 0.04550,
                 64:-0.17226,  63:-0.30036,  62: 0.58833,  61: 0.14156,  60: 0.13858,  59:-0.06661,  58:-0.26568,  57:-0.19842,
                 56:-0.06667,  55:-0.10920,  54: 0.16029,  53:-0.10171,  52:-0.17128,  51: 0.12791,  50: 0.14739,  49: 0.02187,
                 48:-0.33188,  47: 0.31721,  46:-0.04594,  45: 0.08855,  44:-0.19237,  43: 0.21131,  42: 0.49338,  41:-0.19475,
                 40: 0.16399,  39:-0.01732,  38:-0.21951,  37:-0.03119,  36: 0.16810,  35:-0.27047,  34:-0.21669,  33:-0.25094,
                 32:-0.09548,  31:-0.13579,  30: 0.26951,  29:-0.31254,  28:-0.02300,  27: 0.18709,  26:-0.19706,  25: 0.24880,
                 24:-0.11544,  23:-0.36216,  22:-0.08899,  21: 0.04763,  20: 0.07612,  19: 0.28110,  18:-0.16486,  17: 0.12715,
                 16: 0.13520,  15: 0.06461,  14:-0.00283,  13:-0.10625,  12: 0.00216,  11:-0.04006,  10:-0.01614,   9:-0.05171,
                  8: 0.21825,   7:-0.00320,   6: 0.18305,   5: 0.13880,   4: 0.11138,   3: 0.25940,   2: 0.16531,   1: 0.21430
   221 |      | 220: 0.86333, 219:-0.56226, 218:-0.94534, 217:-0.09826, 216:-0.76685, 215: 0.56418, 214:-1.48916, 213: 1.16724,
                212:-0.27133, 211:-0.52681, 210:-0.62145, 209: 1.18807, 208: 0.30074, 207: 0.86389, 206: 0.52376, 205:-0.66479,
                204:-0.03793, 203: 0.50150, 202:-2.18940, 201: 1.38419
-------|------|----------------------------------------------------------------------------------------------------------------
